/*This file is automatically generated from a Keras model*/
/*This file is automatically generated from a Keras model*/

#ifdef HAVE_CONFIG_H
#include "config.h"
#endif

#include "rnn.h"
#include "rnn_data.h"

static const rnn_weight input_dense_weights[1008] = {
  -3, 12, 7, 59, 5, 73, 14, -1,
  -15, 5, 22, -4, 22, -18, -10, -15,
  -11, -68, 2, -35, -10, -17, -1, 64,
  -12, 42, 18, -48, 13, -1, 15, -19,
  8, 23, -46, -4, 57, 43, 0, -17,
  2, -70, -25, 31, 7, 3, -20, -19,
  -5, 22, 1, -42, 23, -22, 37, -15,
  47, 1, 30, 0, -87, 97, 44, -13,
  16, -31, -13, -1, -44, 35, -24, 29,
  44, 46, 19, -26, -39, -6, -14, 43,
  -19, -4, -34, 29, 54, 73, -51, 29,
  -25, 32, 11, 118, -49, 49, 1, 27,
  23, -3, 18, 6, -34, -67, 14, 47,
  6, 17, 65, 39, -3, -21, 35, 44,
  -82, 8, 27, -2, -25, 41, 40, -66,
  -61, 51, 42, 0, 18, 10, -45, -19,
  94, 51, -7, 22, 97, -95, 50, 43,
  40, 46, -22, 4, 65, -52, 33, -81,
  7, -60, -47, 100, -49, -41, 52, -84,
  -52, 86, -33, 64, -45, -101, 127, 120,
  -24, -70, -61, 9, 39, -22, -66, -44,
  13, 35, 22, -55, -21, -100, -60, -23,
  73, -42, -22, 111, -57, 21, 5, 65,
  -61, 31, 0, -87, 33, 100, 56, -40,
  4, -68, -57, 105, 53, 18, -21, -114,
  -88, 88, -12, 127, -66, 85, 117, 121,
  -125, 22, -111, -101, -128, 116, 94, -47,
  127, -123, 17, -97, -18, -71, 19, -125,
  115, -12, -6, 85, 2, -16, 40, 7,
  -42, 5, -3, 89, 76, 124, 62, 41,
  -40, 110, 52, -105, 9, -86, 111, -49,
  8, 39, 51, 44, 22, -125, 16, 86,
  -51, -33, 21, 109, 115, 43, -93, 111,
  -92, 86, 110, -3, -80, -113, 25, -43,
  121, 126, 52, -51, -7, -86, 9, 31,
  41, -92, -43, 82, -2, 48, -44, 7,
  -78, -34, -22, 33, 5, 22, 36, 57,
  82, 100, 75, -24, 39, -25, 34, -45,
  -88, -87, 65, -61, 65, 12, -49, 98,
  76, -94, -25, -128, -14, -25, -34, -128,
  85, -81, 121, 91, 69, 36, 127, -19,
  -69, -55, 33, 14, 126, 26, -110, 26,
  -125, 113, 39, -81, -6, -70, 119, -44,
  24, 94, 85, -5, -109, -77, 45, -3,
  -114, 78, 97, -84, 51, -51, -125, 88,
  -4, 24, -43, -126, -6, -128, -51, -57,
  -55, 38, -50, 34, 127, 67, 27, -73,
  16, -26, -7, -83, -32, 106, -48, 81,
  10, -50, -47, 87, 33, 38, -38, -17,
  -113, 65, 8, 60, 58, -77, 15, -53,
  -106, 35, 26, -120, 24, 70, 125, 40,
  12, -128, -117, 11, 53, -43, -86, -112,
  -39, 36, -85, 30, -49, 59, 45, 36,
  -75, -95, -95, -19, -128, -27, 127, 123,
  -31, -105, 12, 27, -59, 99, 51, -12,
  119, 127, 125, -19, -110, -77, 26, 110,
  -30, -112, -21, 57, -4, -10, 48, 55,
  84, -50, -124, 94, -10, 120, -31, -100,
  -125, 33, 17, 32, -19, 37, -4, 67,
  -91, -61, -121, -36, -83, 36, 127, 83,
  -53, -44, -127, -47, 2, -13, -75, 6,
  12, 62, -7, -10, -36, -82, 99, 50,
  10, 47, 34, 29, -22, 75, 42, 82,
  -48, -5, -9, 31, -32, -32, 22, -20,
  12, 113, -95, 26, -80, 105, -76, 29,
  -99, -128, -128, -125, 26, 38, -52, 122,
  -125, -105, 43, -116, 114, -86, 113, 122,
  -60, 50, 75, 6, -125, -23, -83, -125,
  -23, 73, 97, -63, -13, 84, 0, 44,
  -127, 113, -128, -111, -111, -68, 125, 126,
  115, 127, -117, -102, -48, 39, -81, -125,
  3, -79, 45, 102, 7, -24, -124, -97,
  126, 125, 125, 8, 50, 120, 91, -46,
  -71, 25, 50, -78, 96, -10, 52, 77,
  -41, -74, 18, -114, -7, -75, 116, -25,
  47, -36, -55, 78, -24, 97, -127, -10,
  -37, -57, -122, 109, 78, 59, -55, -37,
  -91, 47, 2, 51, -127, -88, 29, 45,
  127, -108, 29, 69, 127, 127, -120, -128,
  -119, -125, -74, 127, 83, 64, 123, 13,
  -85, 30, -127, -128, -119, 114, 73, -83,
  -70, 15, -111, -72, -117, 19, 85, 110,
  75, 125, 19, -67, -106, 2, 1, -40,
  -58, 26, 127, -49, 6, -9, 15, -44,
  -121, -95, 53, -76, 66, -40, -38, -37,
  24, -104, -15, -1, -22, -125, 11, 59,
  18, -45, 120, -36, -1, 13, 9, -26,
  -13, 13, -127, -31, -1, -125, -75, 94,
  -53, -48, 64, -58, -74, -36, -56, 17,
  -61, -120, 59, -48, -27, 85, -25, -92,
  52, 124, 98, 21, 107, 79, -122, -3,
  49, -88, -13, 20, 64, -18, 42, -22,
  30, -30, -27, -18, -33, -1, 108, -13,
  -92, -3, -20, -1, -50, -26, -26, 33,
  13, 56, 127, 65, -23, 104, -32, -16,
  97, 127, -38, 34, 6, 20, -27, -11,
  9, -85, 62, 9, -24, 124, -33, 46,
  9, -7, -58, 121, 62, 127, 84, -63,
  28, 74, -48, -127, 7, -26, 125, 19,
  -5, 70, -123, 69, -31, 2, -44, 114,
  8, 82, -127, -78, -74, -9, 98, 2,
  -111, -97, -23, 22, 19, 102, 11, 27,
  -16, 74, 105, -126, -69, -29, -31, 11,
  127, -45, 14, -98, 114, -31, -16, 22,
  123, 53, 48, 21, 56, -89, -128, 116,
  -42, 24, 92, -124, -25, 34, 27, 21,
  39, -81, 51, -24, 4, -37, -116, -81,
  127, -32, 59, -122, -24, -29, -118, 117,
  -34, 36, -29, -61, 53, 106, 23, 96,
  69, -66, 40, -26, 39, 109, -121, 87,
  6, -120, 13, 11, -99, 122, 51, 68,
  80, 62, -45, -68, 62, 36, 19, -10,
  -31, -71, 14, -48, -18, 10, -101, 94,
  54, -6, 32, 1, -100, 90, 111, -122,
  69, -73, -24, 26, 104, 78, 111, 26,
  8, -68, -46, 24, 76, -21, -108, -1,
  43, 12, -4, 15, 28, 63, 15, -119,
  9, -93, -113, 78, 95, 4, -15, 30,
  -67, -3, -37, -24, -58, 68, -7, 71,
  0, 78, 3, -9, -30, 35, -35, -113,
  -35, -61, -41, 47, -15, 54, -48, 46,
  -31, 37, 119, 0, -33, 83, 2, -29,
  6, -4, 11, 8, -124, 45, 88, -51,
  3, 41, -1, 6, 22, 3, -8, 127,
  52, -37, 30, -1, 25, -20, -14, -22,
  28, 44, 127, 1, -18, -114, 1, -17
};

static const rnn_weight input_dense_bias[24] = {
  45, 90, -25, 0, -128, -71, -28, -97,
  12, 27, 22, 102, -64, -17, 67, 127,
  -100, 51, -48, 118, 62, -31, 70, -16
};

const DenseLayer input_dense = {
  input_dense_bias,
  input_dense_weights,
  42, 24, ACTIVATION_TANH
};

static const rnn_weight vad_gru_weights[1728] = {
  3, 96, 103, 127, -121, -5, -6, 127,
  8, 92, -13, 106, -50, -4, -20, 123,
  120, -39, -70, 24, -120, 57, 8, -62,
  -20, -102, 100, -12, -2, 19, 73, -123,
  27, -90, 32, -97, -22, 122, 100, -72,
  -16, 42, 76, 43, -7, -71, 42, -7,
  11, 87, 19, 110, -25, -68, 73, -75,
  -19, -95, -33, 39, 50, 11, 15, -21,
  -102, 6, -24, -19, 57, -67, -10, -14,
  40, -126, 51, -27, -128, -80, 20, -6,
  16, -128, -128, -84, 0, 62, -48, -97,
  -28, 74, -128, 26, -120, 27, 27, -91,
  63, 61, -2, -38, 35, 25, 2, 43,
  52, -6, -31, -59, -47, -94, -9, -62,
  -13, 49, 5, -113, 41, 22, 19, 27,
  -40, -41, -58, 32, 22, 25, -10, 18,
  1, -1, 53, -35, 62, 3, 49, -29,
  -38, 47, 19, 2, -24, 22, -34, -61,
  -51, 123, 54, -11, -128, -106, 127, 41,
  -66, 110, -28, 95, -84, 48, 120, 126,
  125, -112, -59, 60, -128, -13, -52, 44,
  71, 61, 6, -81, 9, 38, -11, 2,
  33, -28, 0, -39, -17, -57, -84, 25,
  -86, 74, 14, -22, 102, 86, -90, 36,
  -85, -28, -31, -64, -73, 73, -48, -8,
  -27, 5, 43, -8, 54, 19, -16, -19,
  -1, 22, 81, -2, 83, 82, -20, 46,
  100, 26, -46, 60, 37, 44, -15, -3,
  102, 84, 78, 19, -126, -127, 97, 1,
  24, 92, 53, 65, 43, -3, -24, 36,
  -63, 55, 57, -60, 28, 74, 30, 28,
  3, 18, -77, -53, -25, 50, -19, -9,
  -30, 16, 61, -61, 68, 2, 21, 70,
  54, -45, 53, 41, -4, -13, 38, -63,
  49, -64, 29, 47, 47, -21, -71, -62,
  -54, -54, 0, -44, 51, 4, -66, 58,
  32, 119, -128, 89, 102, 66, 127, 116,
  24, 127, 100, 126, -44, 118, 126, 106,
  124, -113, 95, 127, 116, 9, -118, 21,
  -60, -41, -65, -27, 18, -20, -44, -13,
  7, -79, -70, 14, -47, -67, -69, -15,
  -96, -27, -3, -24, 27, 25, -44, -63,
  -78, 5, 49, -42, 26, -27, -30, -51,
  2, 9, -4, -60, 0, -80, 56, 32,
  28, 27, 41, 49, 69, -13, 46, 6,
  -1, 50, 42, 28, 47, 6, 24, 22,
  2, -8, 50, -41, -126, -22, 57, 66,
  -14, 54, 49, 84, -25, 60, 4, -41,
  -3, -3, 9, -22, -53, -30, -26, 32,
  30, 0, -92, -36, 0, 0, -45, -91,
  -39, 81, -42, -25, 19, 41, -36, 39,
  17, 34, 44, 48, 40, -37, 65, -38,
  29, 14, 10, -25, -42, 69, -63, -36,
  -34, -23, 28, -64, 29, 34, 30, 31,
  6, -81, -59, -105, -35, 74, 48, -123,
  -7, -45, -29, -14, -69, -4, -128, -28,
  12, 48, -12, -61, 2, 50, 0, -32,
  -48, -18, -101, 38, -6, -1, -47, 11,
  16, -28, -116, 13, -124, 20, -32, -38,
  37, 58, -28, 11, -118, 66, -72, 17,
  -39, -86, 11, -41, -78, -11, -41, 72,
  36, -31, 21, -80, -33, 4, 32, 18,
  -21, 12, 13, 60, 4, -8, 21, -31,
  -67, -111, -56, -59, -70, 127, -127, -114,
  -113, -128, -125, -126, 25, 42, -127, -128,
  -108, 44, -86, -128, -23, 15, -74, -16,
  -20, -52, -17, 30, -59, -38, -91, -25,
  -45, 38, 89, 64, -9, -112, 50, -58,
  -122, 60, -91, -51, -87, -29, -100, -28,
  -77, -6, 26, -99, -25, -97, -112, 127,
  -33, 68, 67, -67, 57, -79, 123, 59,
  55, -51, -1, 46, -33, 29, 32, 24,
  -5, -99, -4, -40, -103, -98, 24, -11,
  3, -48, -127, -69, 103, -67, -30, -40,
  2, -115, -24, -93, -107, -31, -43, -48,
  60, 52, -42, -78, -10, 41, -4, -16,
  3, -58, 35, -24, 38, 27, -83, 56,
  12, 76, 26, 44, 2, -7, -70, 50,
  -28, -22, 14, -34, -23, 32, -75, -4,
  -18, 65, 37, 20, 27, -77, 8, -45,
  -20, 4, -4, 15, 12, -35, -17, 10,
  -46, -128, 31, -105, -109, 64, -127, -128,
  -12, -102, -60, -51, -35, -112, -125, 44,
  -128, 114, -106, -125, 121, 55, 41, 64,
  73, 127, 61, 82, 2, 26, -51, 24,
  54, 11, 72, 34, 17, -87, -24, -64,
  20, 0, -8, -86, 105, 109, 94, -31,
  95, 35, -18, 29, 51, 19, 57, -7,
  -13, 77, 63, -1, -69, 97, -31, 29,
  14, -61, -93, 53, -45, -116, 6, -70,
  -83, 10, 14, 24, -42, -94, 13, -90,
  32, 12, -48, -46, -66, -58, -27, 2,
  76, 32, -46, 58, 37, 49, -4, 1,
  34, 41, 44, -28, -26, -12, -30, 34,
  54, -49, -75, 52, 39, 114, -22, -37,
  58, 90, 24, -45, -55, 13, -34, 28,
  -44, -10, -40, -51, -46, 84, -60, 8,
  13, 42, 8, -27, -34, -19, 21, 47,
  -5, 107, -37, -21, -26, 36, -5, -10,
  -128, 127, 125, -86, 117, -7, -32, 98,
  -16, 88, 127, 86, -33, -85, 45, -19,
  103, -57, -69, 21, -24, -38, 86, 101,
  127, 0, -128, 16, 127, 121, 68, 43,
  117, -16, -10, 14, -91, 51, 98, -65,
  79, 111, 48, 41, 46, 60, -78, 94,
  22, 125, 1, 7, 127, 66, 124, -72,
  48, -108, -117, 105, 20, 72, -104, -24,
  -102, 52, -113, -62, -23, -122, -90, 25,
  -39, 2, -47, -3, -20, -102, -42, -41,
  -7, 41, 3, 16, -101, 94, -2, -72,
  88, 22, -97, 8, -99, -98, -34, -65,
  8, 38, 111, -104, -49, 54, -18, 9,
  -6, -33, 1, -34, -52, 30, 17, -58,
  26, -5, 22, 27, 87, 7, 56, -13,
  -35, 41, -11, -44, -15, 10, 7, 4,
  22, -38, -34, -45, 80, -5, 7, 15,
  -37, 60, -29, -43, 40, 51, 16, 18,
  -24, 9, 69, -53, 41, -49, 92, 120,
  -19, -57, 60, 49, 126, 48, 50, 10,
  56, -46, -128, 32, 17, 43, 9, 80,
  86, -34, 2, 41, 41, -29, 10, 21,
  -29, 65, 104, -32, 17, -48, 126, 65,
  34, -12, -22, 122, 32, -50, 35, 26,
  34, 53, 9, -2, 40, 25, 40, -87,
  43, -9, -21, 45, 11, 56, 36, 3,
  -61, 54, 11, -56, 42, 8, -4, -22,
  42, -12, -6, 15, 118, -67, 65, 120,
  72, 115, 9, 56, 26, 31, 125, 37,
  127, -59, -8, 54, 9, 15, 37, -25,
  24, -18, -116, -63, 82, 72, 20, -52,
  81, -30, -34, -70, -18, -8, 2, -55,
  49, 33, 105, -96, -14, -62, -55, -4,
  84, 50, 0, 51, 32, 0, 127, -33,
  81, -25, -5, 0, -7, 91, -99, -75,
  -101, -32, 24, -105, 49, -84, 49, 44,
  102, 35, 82, 109, -28, -19, 32, 68,
  -36, -30, -23, 16, 127, -1, 103, 23,
  -1, -108, -43, 39, 36, -33, 67, -41,
  73, -21, -68, -124, 71, 50, 28, -8,
  41, -32, 48, -18, 20, 105, -39, 27,
  98, 20, 39, 13, 5, -4, 39, 76,
  64, 33, -66, 77, -16, 4, -5, -24,
  29, 6, 17, 11, -37, -30, -49, -43,
  18, 27, 27, -79, -33, -68, 7, -37,
  55, -57, -69, -95, -45, -66, 30, 34,
  -16, -71, -124, -75, -31, 127, -15, -113,
  40, -123, 5, 24, -102, -46, -38, -106,
  -32, 33, 8, -29, -54, -83, -78, 0,
  -94, -18, 99, -45, 51, -48, 51, 127,
  59, -75, -40, 21, -57, -127, -45, -47,
  61, -13, -38, -71, -80, 43, 14, 47,
  -103, -33, 1, -23, 54, 22, 62, -7,
  -40, -75, -6, -18, 58, 50, -8, -24,
  -9, 40, -6, -19, -24, 6, -93, 40,
  11, 63, 9, 10, 18, 15, -56, -60,
  6, -49, 106, 10, 62, 42, -12, 104,
  31, 47, -71, 108, 7, 11, 20, -59,
  -35, -29, 28, 17, -39, 74, -9, 14,
  32, -30, 46, 76, 10, -3, -28, 63,
  -13, 58, -47, -26, 20, 39, 13, 45,
  26, -46, -14, -20, -19, 24, -39, -30,
  -28, -19, -68, -27, -20, 74, -14, 56,
  -127, -85, 63, -42, 21, 71, -45, -119,
  -112, -121, -101, -124, 75, -48, -91, -58,
  -17, -51, 28, -96, 108, 7, -56, -119,
  -1, 93, -128, 43, 12, 105, -111, 55,
  -98, 44, 88, 89, -6, 66, -63, -27,
  -9, 28, -111, 46, -82, -76, -7, -41,
  -128, -32, 35, -85, -17, -33, -78, 120,
  -108, 64, 5, -81, 47, -127, 96, 87,
  120, 24, 52, 103, 39, 78, 112, -53,
  -37, -88, 16, -22, -34, 3, -90, 30,
  -54, -86, 5, -5, 126, 70, -40, -15,
  -43, -43, -127, 19, -67, 11, 20, 9,
  16, -4, 80, -32, 49, 43, -46, -72,
  6, 26, 5, 14, -65, 25, -26, 79,
  7, 37, 22, 31, 1, -21, -28, 35,
  -33, -56, -42, -46, 8, -30, -63, 62,
  -34, 44, 13, 19, 83, 39, -21, 39,
  58, 53, -40, 10, -24, -10, -65, 28,
  29, -126, 49, -56, -38, -65, -65, -81,
  -97, -28, -115, -63, -11, 16, -33, -110,
  -37, -71, 35, -17, -10, -19, 5, 87,
  13, 48, -24, -12, -83, 65, -123, 102,
  10, -34, -13, -92, 50, -36, -120, 15,
  -90, -37, 15, 56, 46, -3, -25, 38,
  30, -16, -13, 18, -59, -7, -35, -42,
  -44, 29, 55, -16, -22, 2, -12, 41,
  20, 14, 9, 41, 42, 85, -5, -15,
  -85, 1, -3, 34, 90, 81, 29, 24,
  77, -28, 89, -47, 104, -92, 52, -8,
  68, 18, -98, -74, 117, -36, -29, 111,
  53, -82, -96, 30, -31, 31, 73, -105,
  -39, -5, 96, 63, 34, -9, 63, 87,
  68, 64, -9, 33, -63, -7, -72, 32,
  -20, 7, -91, 25, 63, -29, -19, -73,
  23, -58, 20, 18, -72, -28, 12, -34,
  29, 23, -11, 43, -33, 12, 48, 13,
  -48, 61, 8, 53, 21, 47, -92, 119,
  7, 112, 100, -42, -124, -45, -24, 42,
  33, 26, -22, 30, -28, -116, 89, 86,
  12, -58, 81, -14, 111, 53, 102, 34,
  86, 14, 89, -12, 73, 124, 116, -51,
  89, 31, 89, 18, 34, 73, 21, 83,
  9, 61, -14, 58, 16, 13, 19, -37,
  24, -34, -10, 75, 17, 25, 32, -67,
  -47, -12, -43, 7, 0, -47, -4, -23,
  11, -29, 0, -23, -78, -116, 8, -65,
  -40, -33, -24, 21, -42, -81, -75, -46,
  3, 72, 35, -43, -101, 25, -28, -86,
  -60, -4, -19, 55, 6, 38, 9, 75,
  28, 27, 25, -18, -52, 22, 26, -14,
  -61, 33, 27, -8, 4, -47, 5, -16,
  44, 13, 54, -66, -30, 66, -56, -26,
  60, 18, 45, 23, 27, -38, 47, 52,
  0, -27, -40, -23, 41, -33, -62, -63
};

static const rnn_weight vad_gru_recurrent_weights[1728] = {
  -102, 37, -77, 8, 20, -66, -115, -61,
  14, 36, -59, -23, -91, -68, -24, -24,
  -117, -110, 96, -76, 2, 35, 4, -56,
  -52, -34, 27, 73, -51, -42, -12, -43,
  -73, -24, 19, -36, -15, 16, 2, 47,
  -6, -9, -16, 26, 13, -28, -17, 4,
  48, 19, -91, -45, 38, -41, 35, -66,
  69, 12, -7, 28, -24, 111, -11, -36,
  -59, -78, -53, 11, -15, -42, -24, 67,
  -104, -60, 19, -5, -70, -118, -126, -43,
  5, -94, -33, -90, 4, -88, -56, -47,
  -111, -6, -29, -106, -39, -86, -42, -7,
  13, -54, 68, 6, -28, 14, -54, -86,
  -9, 10, -32, 60, 10, 3, 6, 12,
  -93, -81, 16, 39, -36, -6, 16, -31,
  87, -26, -15, -25, 46, -119, 95, 14,
  -4, 5, -44, 22, 39, 30, -50, -21,
  -45, -59, -80, -29, -66, -32, -9, -28,
  -25, -115, 124, -128, -21, -101, 11, -27,
  127, -114, -114, -89, 94, 9, -13, -92,
  -49, 62, -121, -126, -96, 36, 127, -128,
  81, 31, 122, -11, 28, 87, 8, -45,
  -52, 10, -11, 120, 34, -24, 41, 16,
  126, 13, 18, 118, -83, -19, 94, -49,
  121, 127, 81, 57, 34, 8, 55, -76,
  38, -97, -125, 122, 54, 77, -87, -126,
  -27, -91, -102, -127, -87, -73, 72, 42,
  -22, -91, 88, -102, 59, -12, -128, -87,
  28, -89, -20, -116, 53, -4, 17, -26,
  -1, 91, 18, -117, 32, 12, 88, 100,
  -11, -76, -5, -38, 28, 12, 43, -35,
  -28, -68, -7, -48, 73, 18, -28, -39,
  23, 34, 6, -6, 40, 53, 73, 49,
  -24, -21, -6, 69, 23, -6, 73, -8,
  53, -57, -12, 93, 2, 67, -75, -107,
  -73, -49, -68, -50, -58, -62, -15, 111,
  -61, -19, -70, 32, -35, 90, -63, -20,
  -40, -31, -79, -65, -22, -111, -60, -36,
  -87, 70, -66, -72, -42, -28, -57, 63,
  80, -8, -7, 62, -13, 20, 6, -94,
  0, 35, -64, -7, -6, -21, -23, -21,
  -37, -14, 15, -38, -30, 22, -56, -65,
  49, 48, -29, 38, 71, -77, 48, 29,
  82, -5, -61, 38, -83, -9, -50, 27,
  -41, -91, -33, 26, -45, 29, -29, 43,
  -4, 43, 126, 29, -27, 50, 50, 44,
  125, 36, -1, 31, 47, -1, 9, 15,
  17, 27, -72, 56, 29, -70, 103, -67,
  10, -35, -25, -64, -23, 0, 44, 36,
  19, -57, -17, -13, 11, -29, -94, -31,
  -52, 6, -60, -19, 40, -7, -46, 54,
  -17, 3, 2, -128, -70, 30, 43, -41,
  -17, 31, 67, -98, 0, -51, 72, 24,
  54, 51, -8, -7, -33, -56, -3, -55,
  -72, 31, -10, 5, 11, 34, 3, -43,
  -48, -52, -54, -6, -74, -40, -90, -5,
  -5, 31, 15, 33, 127, -88, -45, 56,
  -83, 55, 23, -38, -59, -37, -42, -43,
  4, -44, 14, -61, -53, 27, -101, -46,
  0, -44, -50, -56, 39, -62, -17, 20,
  -51, -15, -3, -21, 45, -10, 29, -34,
  -4, 60, 6, -10, -19, -23, 25, 36,
  26, -83, -33, 26, -44, -20, 23, 42,
  -12, 46, 126, 44, 55, 82, -41, 107,
  -2, 52, 126, 32, 126, -87, -1, -18,
  -53, 5, 102, 6, 50, 32, 73, 117,
  22, 58, -71, 68, 109, 40, 49, 18,
  -36, 70, 46, 69, -28, 84, 55, -48,
  90, 45, 32, 40, 36, -1, 15, 44,
  -29, -77, -22, 48, 34, 59, 39, 115,
  -79, 32, -42, -52, 83, -32, 21, -30,
  -68, 61, 39, -17, 25, 43, -21, -18,
  -8, -24, -125, -84, -86, -54, 80, -85,
  -124, -20, -28, -36, -80, -30, 12, -22,
  21, 36, -10, -17, -65, 4, -112, -70,
  -85, -48, 33, 6, -90, -39, -98, -90,
  -34, -48, -81, -58, -63, -81, -100, -68,
  -73, -25, -80, -67, -57, 35, 5, -37,
  -9, -11, 22, -63, 84, -49, 25, -42,
  104, 2, 25, -47, -74, -37, 21, -4,
  67, -94, -30, 0, -34, 61, -80, 20,
  26, 38, 84, -22, -8, -25, 122, -23,
  -20, 112, 76, 51, 106, 27, -65, -5,
  125, -27, 26, -8, -64, 40, 81, -32,
  56, 28, -52, 5, 60, -49, 7, 90,
  21, 1, 24, 52, -28, 27, -34, -17,
  27, -36, 48, 5, 3, 18, -14, -21,
  -14, -35, -3, -54, -44, 79, -127, 51,
  -95, -27, 103, 16, -54, -91, 112, 43,
  103, 31, 37, 39, 67, 46, -12, -57,
  86, 32, 18, 11, 3, -54, 121, 78,
  20, 122, 50, 65, 1, 34, 88, 51,
  52, 6, -30, 98, 10, 17, 124, 16,
  -34, -14, -70, -99, 20, 24, 12, 30,
  0, -71, -22, -45, -62, -45, -57, -43,
  -55, 61, 91, -14, 54, 36, 49, 57,
  -71, 15, 27, -38, -19, 67, -39, -34,
  -15, 39, 13, -60, 8, -74, 65, 37,
  80, 90, 49, 83, -28, 51, -17, -93,
  -55, 3, -29, 58, -80, 20, -124, -70,
  66, -79, -78, -29, -12, -87, -104, 10,
  -119, 67, -89, -77, -16, -44, 26, 16,
  -37, 1, -39, -18, -24, -67, 18, -78,
  -12, 34, 69, 30, 12, -32, 23, 8,
  -16, -52, 9, 14, -16, 46, 53, 45,
  67, 29, -38, 58, 53, -63, 74, -7,
  43, -94, -29, 42, -25, 92, -31, -59,
  -122, 1, -23, -72, -64, -51, -84, 26,
  106, 3, 124, 17, 37, 63, -35, 124,
  113, -15, 50, -15, 126, 16, 67, 17,
  -38, 53, -76, 26, 66, -72, 71, 45,
  104, -29, 54, 20, 106, 85, 127, -80,
  -47, 74, 86, 69, -10, 68, 119, 83,
  127, 49, 44, 46, -10, 13, 16, 42,
  56, 53, 126, 97, 15, -23, 6, -19,
  -67, -79, -96, 107, 59, 31, -64, -119,
  -108, -9, -83, -125, -70, -21, 93, 7,
  -47, 61, 18, 57, 108, -32, -45, 11,
  42, 43, 40, 71, 17, -27, 24, 89,
  -41, 7, 8, -38, 71, -26, 47, 88,
  -77, 73, 0, 18, -19, -5, 4, -22,
  -19, 31, -50, -29, 34, -39, -56, 43,
  35, -33, 8, 32, 2, -29, -6, -5,
  15, 23, 40, 35, -22, -45, 105, -68,
  20, 18, 49, 43, 36, 31, -72, 25,
  -90, -2, -72, 35, -22, -96, -75, 56,
  32, 46, -12, -22, 44, -51, 112, 53,
  -6, 0, -7, 64, 35, 50, 127, 41,
  89, -98, -27, 93, -28, 74, 33, -64,
  40, -51, 30, 11, 4, 41, 31, 107,
  38, -21, -9, 91, -44, 10, 110, 11,
  14, 24, -42, 42, 15, -3, -54, 71,
  -20, -15, 22, 28, 8, 30, -128, 82,
  -108, 4, 10, 1, -55, -108, 42, -22,
  72, 82, 78, -5, 29, 127, -45, -104,
  66, -29, -39, 33, -47, 23, 112, -55,
  -67, 19, -3, 66, -8, 33, 24, 69,
  88, -68, -19, 39, 38, -2, -30, -45,
  -3, -61, 54, -68, 42, 1, -37, 70,
  25, -71, -65, -18, -45, 14, -99, -65,
  2, -34, 52, -32, -90, 16, -2, -42,
  -80, -39, 18, -4, -88, 30, -82, 60,
  7, 33, 31, -94, -28, -119, 94, 61,
  71, -33, 127, 60, 122, 63, -25, -108,
  -21, -28, 1, -78, -123, -18, 94, -68,
  -115, -20, -119, -63, -17, 127, -36, -96,
  127, -112, 61, -27, -101, 56, -73, -104,
  -14, 21, -10, -28, 28, 27, -40, 4,
  13, 57, 21, -18, 18, -39, -29, 3,
  -34, -45, 13, 21, 34, 7, 44, -69,
  -47, -48, 0, -57, -8, -14, -74, -6,
  -18, -1, -20, 51, 18, -19, -20, 21,
  74, -38, 1, 35, -41, 28, -25, -25,
  34, 64, 126, 48, -14, 26, 103, 39,
  111, 21, -24, -5, 99, -14, 51, 48,
  16, 42, -127, 34, 67, -60, 127, 41,
  70, 14, 7, -39, -6, 42, -62, -4,
  125, 31, -51, 15, 17, 9, 49, 27,
  -33, 91, 75, 48, 58, 127, 23, 34,
  -80, -44, 2, -49, -50, 109, -88, 64,
  -19, 24, 97, -28, 85, -60, 104, 20,
  63, 127, 15, -27, 23, -72, -22, -88,
  127, 32, -97, 59, 124, -60, 127, 14,
  7, 50, -31, 103, -53, 124, 127, 40,
  123, -22, -78, 127, 65, 98, -44, -113,
  25, -67, -24, -24, -4, -43, 34, 66,
  27, -20, -15, -42, 33, -50, 21, -6,
  -28, -21, 31, -46, -94, -3, 25, 14,
  -37, -25, 66, -46, -47, 18, -55, -5,
  -46, 25, 13, 13, 4, -32, -11, -22,
  87, -22, 22, 29, 34, -3, 102, -57,
  -26, -19, 22, -36, 23, 0, 126, 13,
  -27, 45, 27, -39, 45, 87, 83, 11,
  127, -112, 52, 49, -54, 28, -85, 41,
  -37, 74, -25, 31, -26, 43, -1, 98,
  -23, 6, 74, -19, 52, -6, 32, -5,
  17, -46, 14, 8, 4, 5, -12, 5,
  -84, -23, -17, -37, -31, 3, -50, 48,
  -85, 5, 69, 19, 18, -33, 62, 89,
  60, 67, 99, 65, 87, 58, 50, -72,
  125, 122, -33, 79, 127, 43, 122, 89,
  -6, 53, 56, 70, -36, 126, 127, 73,
  124, -41, 95, 116, 127, 62, -6, -27,
  47, 15, -26, 5, -5, -15, 40, 18,
  55, -88, 34, -18, -44, 15, -24, 42,
  -14, -18, -6, -24, 21, 16, 12, -55,
  -115, -41, 8, 19, -126, 47, -120, -23,
  -6, 50, 36, -12, -17, -58, 85, -19,
  76, 50, 126, 21, 28, 52, 0, -53,
  127, 127, -120, 112, 127, 37, 126, 51,
  -27, 126, 127, 127, -61, 127, 127, 94,
  100, -124, 118, 126, 127, 125, -110, -30,
  -19, -51, -4, -65, 56, -35, -27, 5,
  -13, -57, -8, 1, -46, 52, -45, 0,
  26, 29, -36, -24, -3, 22, 3, -6,
  6, -24, -9, 17, -23, -45, -4, 27,
  -29, -24, -43, 28, 5, 19, -17, -17,
  48, 89, 63, -20, 74, 120, 120, -27,
  -71, -48, 77, -94, -19, -76, -2, -38,
  125, -82, -71, -16, 42, 124, -20, -37,
  90, 50, -55, -38, -86, 21, 92, -67,
  60, 21, -29, -9, 25, 21, -53, -89,
  -66, 3, -2, 67, 109, 89, 44, 86,
  74, -71, -1, 86, -115, 50, 25, -45,
  52, 115, 121, 125, 90, -51, 27, -119,
  -17, -109, -72, 124, 114, 126, -123, -84,
  -89, -72, -70, -45, -113, -113, 119, 90,
  24, 58, -127, 23, 127, 127, -11, 126,
  -45, -20, 99, 17, -46, 6, -53, -23,
  -9, 41, 106, -30, 92, 123, -125, -128,
  26, -17, -83, 42, -57, 15, 50, -103,
  -126, -55, -64, -36, -35, 18, 13, -62,
  127, -31, -17, -38, 25, -107, -109, 19,
  7, 94, 21, 70, 15, -91, 93, -36,
  46, -110, -9, 46, 121, 55, -63, -14,
  -127, -128, -34, -25, -23, 9, 70, 41
};

static const rnn_weight vad_gru_bias[144] = {
  -125, -51, 127, -66, -6, 28, -124, 40,
  30, -27, 52, -63, 125, -122, -128, -44,
  -127, 125, -3, -67, -21, -29, 127, 97,
  37, 119, 21, 41, 41, 47, 79, 42,
  45, 123, 106, 118, 71, 96, 95, 108,
  42, 53, 74, 115, 98, 65, 85, 110,
  -2, -3, 9, 28, -18, 25, 11, 32,
  -35, 6, 5, 21, 49, 39, 4, -39,
  -44, 34, -22, -27, -13, -27, -8, 0,
  -125, -51, 127, -66, -6, 28, -124, 40,
  30, -27, 52, -63, 125, -122, -128, -44,
  -127, 125, -3, -67, -21, -29, 127, 97,
  37, 119, 21, 41, 41, 47, 79, 42,
  45, 123, 106, 118, 71, 96, 95, 108,
  42, 53, 74, 115, 98, 65, 85, 110,
  -5, -16, 13, 20, -7, 26, 27, 34,
  -24, 9, 21, 29, 43, 27, 9, -25,
  -82, 58, -13, -23, 14, -43, -4, -17
};

const GRULayer vad_gru = {
  vad_gru_bias,
  vad_gru_weights,
  vad_gru_recurrent_weights,
  24, 24, ACTIVATION_TANH
};

static const rnn_weight noise_gru_weights[12960] = {
  32, -114, 80, -11, -42, 35, 66, -25,
  -18, -17, 25, -104, -32, -25, 66, 35,
  77, -38, -90, 50, 19, -33, 56, -70,
  -39, 29, -40, 49, 6, 43, 59, 22,
  -91, -23, -55, -2, -39, 20, 27, 37,
  43, 10, -92, 32, 38, 18, 15, 88,
  -48, -8, -53, -22, 16, 26, -6, 2,
  51, 73, 10, 5, 63, 32, -37, 75,
  32, -11, -17, 25, -40, -28, 107, 14,
  94, -55, 4, 21, 67, 28, 17, -4,
  -8, -44, -42, -37, -25, 31, 7, 14,
  30, -76, -6, 17, 53, 45, 4, 66,
  -27, -40, 18, -36, -51, 37, 13, -7,
  24, 44, 12, 39, -24, 20, 3, 73,
  -60, -18, -93, -19, 22, -39, 45, 24,
  -6, -13, 28, 0, 52, 35, -21, -45,
  6, -54, -44, -39, -30, -11, -4, -59,
  -9, 1, 34, -37, -13, 14, 19, -6,
  -84, 0, 16, 15, -70, -56, -21, 2,
  17, 33, -52, -41, -67, -6, -23, -53,
  -7, 25, 60, 50, 0, 34, -15, -106,
  -41, 20, 45, 30, 16, -22, 79, 13,
  12, 15, -24, 82, 43, -42, -17, -42,
  -8, -7, 19, 35, 38, -69, 23, 16,
  5, 49, -97, -11, 3, -14, -7, -15,
  -26, -71, 40, -6, -31, -41, 32, -1,
  -37, -14, -23, -12, -32, 17, -15, 7,
  -42, 14, 46, 87, 30, -37, 9, -5,
  -57, 45, 16, -18, 34, 46, 1, 6,
  2, 42, -4, 42, -8, 25, -17, 18,
  3, 4, 12, -10, 12, -19, 61, 17,
  -1, -16, -12, -30, -7, -7, 22, 17,
  -42, 17, 22, 20, 54, -37, 16, 29,
  31, 42, 39, -27, 5, 13, -8, -56,
  29, -46, 5, 22, 16, 65, -1, -31,
  25, -43, -10, 18, 2, -43, 49, -34,
  -47, -41, -39, -69, -2, 24, -18, 39,
  -66, 94, -32, -56, -18, 6, 46, 43,
  -4, -37, -37, 36, -26, 28, -5, -88,
  -90, 16, -7, 0, -15, 1, 28, -10,
  7, -3, -41, -13, -19, 8, -12, -9,
  -2, -23, 7, -72, -23, -51, 55, 69,
  -17, 65, -64, 13, 54, 19, 11, -45,
  -26, 14, -3, -1, 36, -18, -44, -13,
  -52, -57, -18, 41, -11, -15, 47, 41,
  -67, -17, -26, 27, 4, -59, 32, 67,
  -14, 24, -3, -24, 28, -28, 44, 3,
  -47, 4, 35, -24, -5, -17, 14, -6,
  -7, -33, 41, -48, 38, -9, -32, 44,
  44, -17, -42, -16, 14, -13, 5, 13,
  43, -22, -7, -39, 11, 18, 7, 26,
  -21, 41, 33, 10, 2, 19, 29, 3,
  17, 42, -15, 8, 42, 15, 34, -29,
  -48, 3, 1, 39, 33, -49, 0, -30,
  -15, -41, 15, 51, -7, 48, 36, 7,
  -18, -14, 3, 45, -5, 1, 13, -19,
  -13, -22, -31, -16, 13, 4, 27, -17,
  11, -8, 7, 17, 6, 40, 23, 46,
  32, 6, 21, 34, 50, 33, -38, 3,
  37, 21, -13, -29, -39, 40, 4, 12,
  -30, -44, -66, 6, -4, -34, 27, -45,
  -13, 22, 16, 10, 19, 44, 30, -10,
  35, -12, 27, -7, -32, 25, -8, 4,
  44, 61, -30, 14, -39, -11, 13, -8,
  -51, -14, 13, 18, 26, 33, -3, 17,
  -25, 3, -5, 1, 12, 52, -75, -17,
  -6, -12, -44, 3, -4, 7, -16, -32,
  18, 11, -15, -54, -3, 11, 7, 39,
  -6, 28, 10, -18, 21, -12, -3, 5,
  34, 58, 32, -28, -12, -39, 25, -25,
  70, -6, -29, -14, -37, -15, -8, -6,
  -9, -38, 23, 22, -10, 39, -18, 5,
  -90, -2, -11, -2, 5, 40, 34, -32,
  -86, 0, -55, 51, 15, -16, -26, -9,
  -51, -46, -73, -62, -31, 13, -11, 41,
  41, -67, 39, -62, 15, -47, -45, 23,
  10, -29, 83, 42, 42, -27, 46, -12,
  -78, -15, -36, -50, 16, -64, 6, -37,
  -55, -28, -36, -38, -15, -62, 5, 33,
  22, 28, 36, 21, -20, 75, 3, -88,
  16, 28, -5, -66, -7, 21, 11, -49,
  -49, 19, 4, 28, -20, 22, -31, 13,
  17, 31, 50, -24, 34, -47, -54, 30,
  19, 8, -13, 35, 10, -1, 46, -7,
  35, -61, -51, 28, -31, -22, -7, 15,
  27, 10, -8, 19, 53, 9, 10, -5,
  51, -3, 43, 58, 48, -9, -64, 37,
  -3, -34, 5, -55, -35, 11, -22, 27,
  29, 73, -62, -4, 35, 29, 37, 62,
  18, -7, -8, 31, -29, 30, -17, 1,
  -15, 20, 5, -15, -16, -3, 36, 42,
  46, 30, -34, 67, 7, -24, 5, -77,
  -14, 21, -2, -10, -18, -33, 37, 26,
  10, -70, -50, 33, -17, 23, -5, -5,
  1, 27, -21, -13, -6, -17, 4, 57,
  19, 1, -36, -63, 0, 13, -28, 54,
  -34, 8, -77, 48, -78, 19, -27, -19,
  -30, -17, 18, 49, -10, -6, 6, -49,
  -41, 33, 46, 1, 37, -11, 58, -45,
  27, 31, -27, -31, -75, 21, -29, 32,
  -26, -12, 5, -22, 29, 1, 37, -2,
  -3, 24, 57, -2, -32, 43, 65, -13,
  22, 7, 28, 18, -8, 6, 6, -34,
  21, -24, 17, -45, 29, 28, -13, 26,
  -47, -19, -14, 38, 20, -2, 9, 6,
  -41, -14, 32, -6, 5, 20, 54, 30,
  14, 7, 16, -7, 7, 52, -19, 11,
  52, 30, 14, 60, 10, 55, -3, -32,
  -36, -21, 10, 0, 55, -69, -13, -10,
  35, 7, -48, 26, 15, -49, -42, -26,
  -34, -38, 62, -1, -61, -22, -32, -26,
  85, 28, 22, -61, 47, -24, -9, -10,
  13, -12, -20, -38, 5, -1, -41, -21,
  -45, 10, -3, 5, -59, -62, -22, -61,
  -26, -46, -30, 22, -23, -44, 0, -7,
  -10, -19, 42, 6, 18, -26, 29, 26,
  31, -38, 1, 29, 18, 5, -48, 28,
  -41, 45, 39, -53, -55, 1, 31, 20,
  -42, 34, 6, -40, 4, -13, -13, 3,
  49, 78, -11, -7, 112, -22, 30, -30,
  72, -8, 6, 11, -2, -49, 8, 22,
  -30, 8, 45, 6, 1, 27, 43, 13,
  15, 8, 43, 12, 39, -37, -15, 5,
  -4, 29, -13, -19, -24, 51, -39, 43,
  20, 27, 62, -8, 19, -55, -1, 30,
  9, -13, 0, -6, -27, 7, -14, 10,
  -49, 75, -16, -26, 13, -62, -100, 22,
  -16, -127, 104, -37, 43, -9, -12, 40,
  -82, 5, 17, 28, 28, -8, -62, -103,
  62, 32, 11, 2, 37, -51, 13, -26,
  26, 62, -26, -41, -49, -58, 92, -67,
  24, -76, 2, -16, -31, -49, -19, -40,
  108, -14, -31, -18, 36, 13, -16, -9,
  -78, -34, -11, -17, 16, -23, 43, 28,
  8, -16, -27, 10, -74, 38, 31, 15,
  -37, 4, 4, -47, 18, -36, -73, 32,
  -5, -13, -12, -49, -51, 3, 9, -2,
  20, -127, -75, 42, -6, 4, 22, -22,
  11, 10, 1, -15, 8, 3, 44, 23,
  -16, -35, -8, -83, -66, -9, -8, -16,
  -47, -10, 15, -22, -38, -14, 8, 56,
  -13, 24, 10, -43, -3, 10, 34, 1,
  -24, 3, 71, 9, 17, -16, -15, -35,
  16, 31, -26, 46, 22, -18, 8, -45,
  -32, -40, -43, 25, -16, -9, 37, 27,
  1, -70, -12, 9, -12, -35, 3, -28,
  2, -26, -42, 91, -25, 63, -40, 19,
  19, 25, -34, 0, -24, 6, 17, -21,
  -40, 32, 2, -14, 3, -11, -6, -31,
  -19, 41, -3, -49, -18, -86, 1, -25,
  -50, 1, 3, 49, 20, 25, 53, 34,
  43, -20, -2, -41, -15, -29, -27, -4,
  12, -4, -22, -1, -31, -1, -25, 29,
  -52, -11, 10, 0, 22, 7, 34, 43,
  43, 62, 31, -29, -5, -13, -16, -28,
  -41, -2, -9, -43, 3, 1, 108, -13,
  -40, 40, 31, -2, 5, -1, -42, 23,
  -19, -9, 0, -12, -8, 55, 31, -13,
  8, -30, 17, 7, -28, 1, 27, -34,
  30, -12, -15, -1, 62, 17, -24, -24,
  -21, -24, 40, 5, -2, -5, -3, -16,
  26, 6, -27, 22, 58, -1, -39, 23,
  -39, 5, 61, 9, 47, -27, -46, 30,
  17, 47, 8, -67, -18, 95, -2, 2,
  103, 20, 47, 19, 5, 5, -6, -33,
  79, 38, 16, 3, 11, -45, -7, -71,
  -25, 66, 16, 27, 48, 56, 30, -4,
  37, 15, -12, 60, -19, -14, 23, 49,
  23, 19, 15, 7, -18, 7, 44, -21,
  -17, -5, -3, 39, 69, -1, 11, 3,
  53, -68, -23, 20, 73, 23, 23, 35,
  35, 3, 33, -7, 13, -54, 7, -14,
  -45, -27, -64, 33, -19, 26, 30, -6,
  -48, -30, -10, 27, 35, -29, 4, -46,
  -13, 10, -32, 6, -3, 0, 4, -65,
  -38, 44, -8, 46, 15, -28, -36, -26,
  -23, 0, -29, -11, 29, 4, 9, 25,
  20, 4, 37, 8, 9, -6, 8, 10,
  12, -52, 5, 22, -42, -36, -11, 8,
  -9, -14, 6, -3, 27, -34, -8, -8,
  -7, 39, -19, 12, -41, -5, -20, 25,
  22, 17, 82, 11, 46, -39, -24, 3,
  -23, 46, -60, 13, 21, -19, -56, -12,
  22, 18, 26, -21, -9, 44, 23, 25,
  47, -41, 78, 58, -24, -12, -61, 7,
  31, -28, 54, 26, -32, -19, -32, 38,
  46, -8, -61, 14, 13, 0, 33, 36,
  22, 39, 10, -21, 4, 24, 35, 21,
  -21, -46, -9, 18, 36, -3, 22, 50,
  -84, 50, 54, 0, 17, -27, 6, -10,
  34, 15, 45, 12, -50, -33, -28, -37,
  11, 8, -29, 55, 36, -16, -72, -28,
  -26, -32, -22, -43, -34, 33, 44, -38,
  -12, -13, -34, 22, -2, 45, 28, -7,
  17, -9, 31, -7, 29, -24, 35, 4,
  -8, 6, 30, 14, 10, 11, 15, 55,
  35, 9, -27, -25, -19, 8, -36, -23,
  -24, 6, -22, 0, -31, 36, -27, -26,
  87, -30, 65, -28, -20, 38, 46, -25,
  -25, 7, 23, -86, 33, -21, 2, -9,
  -15, 5, 3, -112, -36, 48, 63, 55,
  43, -19, -2, -35, -20, 35, 3, -28,
  81, -65, -121, -44, -22, 24, -8, 77,
  18, 37, 10, -10, -3, 57, -25, 35,
  -4, 2, -9, 29, 13, 80, -17, -36,
  4, 30, -46, -17, 48, -86, -18, -3,
  -23, -40, -8, 70, -29, 53, -20, 42,
  -16, -60, 20, 26, 47, 14, 29, -46,
  7, -32, -18, 6, 26, 3, -22, 38,
  -41, 53, 94, 40, -36, -6, -36, -41,
  22, -19, 9, 70, -39, -10, 28, -17,
  17, 5, -19, 56, 29, -71, 16, 36,
  1, 22, -64, 72, 16, 10, 9, -11,
  3, 45, 38, -6, 20, -45, 14, 15,
  -70, -29, -24, 48, -5, -32, -64, 35,
  14, 7, 73, -32, -14, -13, -43, 33,
  64, -48, -2, -15, 1, 40, 88, 78,
  -4, 53, -22, 11, -36, 17, -13, 30,
  27, 2, -34, 62, 6, 57, 45, -32,
  -25, -16, 20, 14, 49, 12, -25, -4,
  14, 36, 8, -41, 29, -59, -59, 50,
  9, 6, 31, 38, -18, 9, 6, 5,
  27, 63, -30, -12, 6, -37, 15, -58,
  -5, -35, 52, -64, -41, -22, -7, -18,
  -4, -17, 32, 12, 28, 21, -7, 17,
  26, 3, -21, 51, 29, 3, 21, 63,
  55, -14, -15, 22, 19, 20, 0, 30,
  -2, 27, 40, -2, 1, 42, -49, 74,
  29, 59, 2, -8, 26, -44, -5, -16,
  15, 11, 6, -10, -21, 1, -55, -27,
  12, -31, -9, -31, -5, -1, 9, 37,
  25, 2, 53, 8, 17, 40, 25, 36,
  40, -2, -6, 5, 26, 26, 22, 9,
  9, -46, -61, -30, -76, -1, 27, -17,
  -14, 6, 72, -19, 11, 17, -24, 17,
  -24, -49, -128, -5, -41, 9, 12, -11,
  5, 25, 37, 25, -44, -43, -38, -68,
  -32, 41, 6, 66, -50, -40, 29, 57,
  -44, 39, 25, 22, -26, 51, -3, 5,
  25, 24, 4, 33, 24, -25, 21, -23,
  10, -9, -16, 5, 32, 49, -25, 63,
  -60, -13, -47, -31, -24, 0, -44, 34,
  62, 26, -15, -10, -25, -11, 22, 10,
  21, -30, -29, -57, 1, -18, 15, -12,
  0, -13, -52, -1, -21, -60, -43, -21,
  -33, 1, 29, -3, -41, 0, 46, -27,
  -25, 19, -45, -13, -21, 47, -9, -5,
  -17, -14, 34, 52, -13, -18, 23, -17,
  2, -44, -14, -22, 9, 5, 8, 21,
  -41, -30, 14, 24, -5, 10, -26, -5,
  -33, 27, -7, -11, 3, 27, 4, -9,
  20, -27, 9, 32, 64, 34, -18, 2,
  -75, -25, 42, 62, -51, 66, -12, 21,
  -8, 75, -8, 54, 22, 5, -6, -11,
  13, 24, -50, -29, -62, 66, -9, 3,
  -92, 29, -18, 24, -26, 6, -47, -64,
  -13, -21, 19, 57, -14, 21, -38, -20,
  -17, 12, -33, 16, 28, 45, 8, 2,
  -94, 33, 62, 23, -29, 26, 65, 9,
  -47, 23, -35, 14, -36, -11, -40, -37,
  -24, 32, -35, -9, -43, -2, -111, 10,
  3, -11, 52, 64, -10, 47, 9, -19,
  -6, -13, -19, -36, 9, -15, -47, 18,
  -46, 48, 27, -19, -11, -5, -21, 2,
  -13, 56, 1, 3, -23, 34, 13, 16,
  10, 45, 23, -9, -25, -46, 32, 5,
  40, -8, -27, 41, 28, 44, -1, 27,
  -2, -8, 3, 21, 14, -19, -32, -41,
  -41, 1, 43, -35, -36, -35, -19, -20,
  25, -33, -10, -19, 8, -2, 20, -7,
  -29, -38, 79, -9, 50, 54, -12, 5,
  -22, -22, -5, 47, -23, 39, 41, -2,
  -16, 51, 80, -75, 8, -15, 10, 36,
  36, 21, 19, 2, 29, 60, -17, 8,
  -40, -50, -56, -44, 38, -32, 19, 61,
  43, 6, -2, -27, 31, -6, 76, 9,
  44, 31, -33, -15, 26, 12, 24, 21,
  14, 22, -4, 21, 8, -9, -11, -20,
  -5, 25, 3, 57, 9, -4, 32, 1,
  -12, -34, -13, 17, 70, -19, -38, -62,
  68, -8, -21, 13, 5, -50, 17, -24,
  -44, -31, 19, -1, -1, 6, -26, -3,
  11, 13, -15, 21, -32, 44, -86, 43,
  -23, -8, -11, 7, -2, 0, -18, 13,
  8, 5, -64, 51, -14, 60, 23, -27,
  -35, -18, 14, 39, 36, -14, -4, 1,
  14, 12, -30, 32, -25, 28, 33, 33,
  -20, 8, 36, -7, 12, -10, -2, -6,
  -1, -21, -57, -51, -4, -37, -64, -26,
  -14, -1, 8, -4, 50, 5, -28, 51,
  -32, 3, 107, -9, -45, 20, -22, -11,
  -28, -22, -44, 17, 3, 8, -7, 0,
  -30, -6, 58, -17, -8, -48, -4, 11,
  41, -4, -31, 6, -4, -55, -53, 11,
  -3, 31, 17, -9, -15, 3, -3, 60,
  11, -23, -38, -48, -49, 10, -8, -8,
  -51, 51, 6, -17, -2, -4, -31, -51,
  1, 19, 33, 10, 3, 14, -19, -29,
  -49, -16, -63, 30, 29, -18, -13, 62,
  -35, -77, -23, 35, -19, 51, 37, 26,
  -11, -35, 2, 5, -32, -27, 12, 64,
  -15, -21, 7, -3, 6, -9, -16, -46,
  -21, -33, 28, 15, 38, -6, -39, 6,
  32, -11, -15, 35, -35, -5, -28, -31,
  -11, 9, -9, -49, 15, 0, 3, 23,
  -5, -26, 16, -22, 12, 22, 10, -7,
  -45, -64, -48, -63, -11, -27, -74, -41,
  -12, 25, 48, -52, -69, -36, 4, 77,
  66, 43, 61, -61, -17, 17, -5, -44,
  -26, -16, -9, 8, -19, -20, 17, 32,
  18, 48, -45, -5, -27, 40, -13, 0,
  5, 45, -11, 43, -49, -28, 101, -34,
  21, -37, 51, -25, 19, 56, -32, 84,
  48, -26, -2, -69, 37, 37, 48, 43,
  -2, 23, -10, 9, 12, -31, 44, -4,
  17, -18, -2, 61, 17, -77, -7, -32,
  -29, 16, -41, 2, -6, -17, 53, 33,
  -13, -40, -10, -18, -3, -4, -22, 10,
  -30, 7, 62, 2, -15, 17, -21, -4,
  34, -13, 5, -3, 31, 32, 8, 4,
  40, -39, -19, -6, -21, -23, 23, -17,
  -24, -35, -1, 15, -50, 11, -21, -50,
  -36, 5, -18, -32, -4, 23, -36, -5,
  -25, 14, 26, -21, 17, 27, -3, 20,
  -38, -38, -76, -39, -17, -30, -90, 19,
  -4, -54, 20, 54, 38, 25, 21, 19,
  -95, 51, 4, -58, 32, -17, -57, -11,
  43, -38, -8, 65, -19, -17, -4, -51,
  18, -74, 26, -99, -33, -12, 125, 46,
  -8, 19, 29, -8, -35, 4, -29, 12,
  36, -27, 45, -70, 21, -19, -60, 50,
  8, -3, -53, -43, -10, 31, 36, -15,
  -61, 55, 5, -5, -122, -25, 7, -47,
  -86, -59, 3, -48, 15, -45, 12, 63,
  37, 5, -56, 53, -13, 23, 52, -24,
  49, -61, -21, -27, 6, 58, -73, -58,
  6, 29, -13, -60, 56, 17, -25, -27,
  30, -62, 5, 29, 32, 6, 33, 0,
  34, -15, 0, -46, 6, 4, 23, 67,
  4, 20, 30, 4, -44, 26, 14, 37,
  -7, 65, -4, 34, -18, -35, 0, -16,
  30, -49, 29, -9, -22, 34, 25, -98,
  53, 48, 2, -16, -48, 18, 1, -35,
  -14, 14, 26, 30, -45, 36, 8, 52,
  24, 38, -31, -42, 3, -24, 60, -58,
  5, 56, 30, -19, 4, 23, 11, 96,
  0, 55, 8, -59, -6, 32, -7, 56,
  9, 38, 24, 42, 38, 38, 19, -7,
  -3, 7, -18, 14, 11, 27, 17, -1,
  22, 7, -38, -9, 40, 10, 42, -8,
  -7, 50, -23, 33, 64, -7, 11, -5,
  5, -21, -30, 23, -12, -7, -4, -16,
  4, -26, -23, 45, -21, -19, -39, 22,
  21, -35, -19, 16, 31, 4, 80, 15,
  -17, 4, 12, 15, -1, -12, -27, 2,
  -14, 2, 23, -6, 2, -25, -5, -22,
  21, -27, -51, -5, -41, 14, -11, 13,
  19, -11, -4, 20, -9, -41, -30, -26,
  -15, 12, -6, -18, 20, 28, 13, 5,
  4, -17, 15, -8, 37, -11, -35, -28,
  -38, -11, -18, -125, -10, 0, -127, 26,
  -98, 28, -47, -47, 19, 31, 32, -8,
  15, 0, -3, 17, -22, -8, 8, 6,
  -48, 20, 28, 69, -34, 33, 20, 55,
  20, 9, -30, 0, -20, 17, 33, -13,
  -1, 5, -11, 57, -34, 34, 9, -13,
  -12, -31, 18, -34, -3, -3, 39, 39,
  5, -11, 19, -10, 36, 19, 4, -41,
  -99, -40, -29, -18, 24, 22, -19, -50,
  71, 2, -4, -49, -1, 36, 34, -5,
  35, -4, 41, -26, 23, 13, 12, 33,
  -80, -47, 33, -10, 78, -31, 62, 39,
  -12, 33, 7, 22, -8, 7, -19, 33,
  -31, -19, -14, 60, 24, 4, 24, -42,
  -39, 12, 0, 17, 22, -26, -32, -17,
  -25, -19, 1, -11, -31, -1, -18, 1,
  -26, 59, 32, 12, 35, 16, -7, 3,
  -49, -11, 26, -6, 18, -10, -22, -10,
  -33, 7, 77, 3, -4, -22, -17, -61,
  -34, 21, -34, -32, -5, -25, 11, -41,
  25, -18, 32, 59, -40, -20, -8, -59,
  78, 34, 7, -41, -41, 66, -41, 42,
  24, 11, -12, -25, 13, 37, 62, -39,
  30, 35, 11, 42, 53, 69, 31, -43,
  21, 34, 10, -71, -22, 30, -9, 70,
  -13, 27, -57, -4, 41, 0, -18, 52,
  -25, -38, 11, 29, 8, -5, 19, 11,
  13, -14, 31, 17, -72, -40, 29, 29,
  59, -2, 8, 7, 0, -41, -21, -9,
  -4, -16, -55, -47, -43, -42, -1, -43,
  -43, 33, 2, 11, -5, -30, -5, 66,
  5, 36, -9, 22, 28, -19, -4, -1,
  -36, -26, -43, -15, 16, 36, 34, 40,
  23, 22, -8, -13, -29, -7, -30, -9,
  -44, 7, -2, 35, 16, -28, -11, -47,
  25, -22, 19, -37, 15, -6, 12, 19,
  65, 10, 57, 21, -3, 7, 76, -14,
  22, -2, 18, -67, -26, 0, 13, 48,
  25, -41, -27, -36, 43, 42, 74, 28,
  -58, 3, 19, -90, -25, -23, -37, -41,
  -5, 63, 21, -8, 8, -21, -12, 17,
  33, 66, 18, -30, -2, 70, 13, 62,
  10, -27, 12, -18, 49, 59, -69, -18,
  2, 6, -4, -13, -3, -43, -20, 8,
  28, -6, -44, -16, -7, 80, 41, -40,
  21, -10, -23, 42, 63, 66, -46, 16,
  -19, -58, -13, -10, -33, 40, -41, -4,
  17, -7, 39, 21, -7, -9, -34, -10,
  -31, 20, 22, 45, -33, 22, -5, -18,
  41, -6, -35, 16, 25, -9, 12, 43,
  49, -14, -50, -5, -30, 5, 11, -23,
  -18, -18, 31, 31, 35, -10, 20, -24,
  -33, -7, -56, -64, -26, -7, -32, -3,
  -44, -43, 8, 2, -60, -7, -25, -7,
  -20, -5, 6, 28, 12, 20, 16, 38,
  48, -1, -31, -43, 37, 22, -24, 21,
  32, -1, -27, 10, 16, -2, 0, 45,
  29, 15, -9, -6, 24, 31, -6, -8,
  30, 16, -5, 3, 1, -42, 20, -11,
  -32, 21, -23, -85, -32, -47, -35, 37,
  -54, -5, 36, 14, -38, 1, -17, 0,
  11, 38, 13, 13, -47, 19, -1, -1,
  -32, -38, 35, -9, 44, 37, 73, -24,
  62, 50, -10, 3, -20, 1, -2, -7,
  4, -32, 45, -26, -43, 8, -24, -22,
  3, 68, 29, 1, 44, -34, -2, 27,
  47, -33, 10, -20, -21, 16, 16, -5,
  11, -32, -14, -71, 8, -30, 3, -12,
  35, 36, 17, -23, 4, 15, 17, 20,
  76, -26, -41, -62, 13, 22, 28, 29,
  12, -27, -24, -16, -51, -31, 22, -31,
  -12, -50, -32, 3, 15, -11, 44, -36,
  16, -51, 84, 0, -9, 48, -24, -34,
  28, 6, 14, 16, -39, 22, -47, -17,
  -69, -6, 58, -11, 14, -52, 25, 67,
  6, -4, 10, 50, -34, 25, 18, -23,
  -13, 20, 8, 38, -5, 24, 21, -16,
  -36, -29, -19, 25, -36, 22, 7, 45,
  -3, -24, 3, 55, -57, -46, -20, 33,
  13, -19, 44, -5, -15, 13, -7, -57,
  43, 20, 20, 29, 14, 29, 39, -11,
  58, 11, 45, -16, -15, 61, 28, -13,
  -1, -12, -14, -24, -38, 25, -18, 15,
  -47, -12, 21, -25, -28, 10, 12, 24,
  -12, -34, 26, 25, -39, 34, -34, 7,
  22, 21, -14, -18, 8, 25, -36, 19,
  -25, -14, -18, -26, -46, -25, -60, 3,
  6, -13, 24, -17, 20, 36, -38, 7,
  -3, 3, -6, -1, 11, 14, -11, 6,
  -31, 28, 60, 6, -41, 30, -1, 1,
  12, -14, -20, 16, -28, 29, -7, 40,
  -12, -57, 22, 45, 52, 0, 40, -15,
  -5, -3, 0, -52, 37, -33, 9, 25,
  -19, -38, 24, -7, 12, -9, -46, 1,
  -39, 46, 20, 18, -2, 2, 39, -2,
  0, 5, -65, -36, 2, 7, 22, -11,
  13, 30, 30, -30, 9, 6, 0, -6,
  30, 14, 2, -17, 4, -22, -6, -64,
  14, 24, -2, -23, -6, 11, 80, -1,
  -19, -19, -14, -13, 46, 60, 27, 36,
  -12, -8, -44, 16, -48, -44, -13, 9,
  -49, -23, 0, -20, -25, -24, 14, -5,
  -34, -31, -6, -19, 22, -14, 34, -51,
  -49, 14, 6, 17, -12, 7, -28, 16,
  16, 14, 16, -23, -23, 21, 15, 7,
  -15, -13, 3, 57, -24, -28, -4, 49,
  34, -25, 4, 6, -6, 14, 43, 29,
  -14, 56, -4, -21, -18, -28, -26, 3,
  -32, -27, 10, 83, -7, 3, -39, -69,
  98, -25, -34, -106, 23, 58, 62, -44,
  8, 4, 40, -6, -38, 24, 19, 22,
  61, -77, 10, 38, 50, 26, -21, -41,
  78, -73, -1, -11, 54, -36, 3, 59,
  20, -26, -52, 9, 42, -39, -58, 29,
  -7, 9, 4, 47, -7, 29, 21, -56,
  15, -13, 46, 12, -5, -23, 26, 26,
  2, 28, 47, 11, -31, -44, 42, -3,
  -9, 50, -9, -33, 4, -50, 34, -18,
  0, 31, 32, -38, -5, 45, 39, -12,
  15, 33, 20, 32, 33, 17, 26, 10,
  49, 17, 21, 59, -17, 14, -5, -15,
  -17, 10, -15, 2, 21, 17, -1, 60,
  -14, 31, 15, 17, -12, 6, -27, 7,
  67, 31, 10, -25, 16, -6, 17, 12,
  9, 7, 25, 27, 21, 39, 19, -36,
  -10, 22, 25, -20, 1, -6, 6, -20,
  -46, 26, 61, -26, -3, 16, 37, 8,
  -21, 19, 37, 30, -40, 34, -7, -42,
  14, 14, -3, -24, 18, -47, 26, 89,
  -20, 33, -30, -48, -47, 33, -3, -46,
  -35, 11, -32, -31, -4, -4, -3, -31,
  0, 45, -51, 41, -15, 61, -31, 43,
  -24, 49, 30, -28, 19, -39, -8, -38,
  53, 47, -34, -23, 6, -11, -36, -46,
  -11, -38, -7, 7, -41, -16, 38, -25,
  -5, -27, 58, 24, 7, 41, -8, 21,
  -12, 11, 7, -50, 27, -6, 24, 7,
  23, -40, 78, -23, 4, 16, 41, 14,
  8, 28, -8, 45, -4, 18, 24, -27,
  -3, 11, -24, -18, 18, -9, 33, 10,
  -15, -9, -21, -11, 2, -3, 36, -39,
  -5, -14, 3, 23, 15, -35, -36, 18,
  26, 23, -41, -5, -39, -3, -14, -27,
  11, 12, -5, 23, -61, 9, -9, -8,
  17, -9, 2, 73, -18, 1, 58, 38,
  5, 4, 26, 73, -7, -18, -30, -35,
  -37, -12, -31, 41, 5, -46, -5, -8,
  -18, 3, 53, -15, 5, -4, -16, -47,
  -11, 33, -41, 6, -22, -25, 12, -40,
  -18, 53, -72, -7, -24, 18, -36, -8,
  33, -10, -12, -1, -9, 0, -12, 40,
  31, 30, 23, 29, -45, -43, 10, -27,
  71, 20, 26, 0, 4, 37, 11, 38,
  -5, -39, 40, 27, -23, 67, -8, 20,
  -30, 33, 9, -36, -1, 12, 38, 43,
  -48, 33, -6, 27, 6, 0, -16, -64,
  3, 18, 8, 46, 14, 16, -15, -7,
  20, 7, 63, 4, 2, -42, -5, 12,
  29, 26, 26, 9, 17, -18, 17, -5,
  9, -4, 9, -46, 43, 19, 36, -3,
  10, 21, -58, 36, 9, -13, 21, 2,
  -15, 9, -1, 6, 44, -8, -25, 18,
  -10, 34, 38, 23, -6, -32, -24, -10,
  5, 2, 3, -36, 83, 8, 33, 14,
  -14, 0, -14, -17, -19, -10, -18, 43,
  -1, 10, 17, -21, -26, 47, 53, 6,
  19, -65, -1, -1, 25, 52, -18, 28,
  -12, 30, 17, 32, 48, 21, 20, 3,
  25, 36, 11, -16, 30, -17, -6, 16,
  0, 8, -44, -40, 14, -14, -31, 14,
  -41, 6, -62, 13, 18, 3, -61, -1,
  -45, 1, 6, 7, 34, -56, 1, -45,
  10, -9, 7, 35, 9, -24, -41, 4,
  -10, 19, 47, 44, 15, -38, -2, -6,
  29, 3, -31, 4, 6, -22, -9, -28,
  31, 22, 22, 4, 16, 7, -1, 23,
  42, 36, -16, 0, -11, -1, 18, -13,
  21, -17, -29, 35, -15, -35, 15, 20,
  28, 20, 63, 23, -36, 12, 17, 22,
  1, -6, 29, 15, 34, -13, -44, 45,
  -6, -3, 44, -25, -17, 0, 8, 42,
  18, -5, 7, 32, -9, 32, -39, -19,
  -62, 8, -14, 13, -26, -39, 33, 49,
  0, -27, 9, -30, -35, 24, 24, 7,
  50, -3, 14, -9, 41, 10, -14, -15,
  -10, -14, -8, 24, -55, 22, -9, -17,
  22, 28, 27, -6, -53, -21, 43, -29,
  -19, 36, -5, 24, 4, -45, 20, -44,
  5, -24, -8, 31, 37, 17, 37, -1,
  -33, -26, 17, -4, -35, 82, -2, 0,
  28, -18, 13, -37, 8, 31, 15, -8,
  -6, 13, 42, 24, -11, 24, -40, -39,
  7, 8, 37, -31, -7, 24, -19, -34,
  12, -2, -23, 5, -10, -8, -16, 31,
  -29, -15, 48, 0, -21, -4, -61, 8,
  -32, 11, -12, -16, -23, 15, -21, 2,
  19, 54, -34, -19, -45, -37, -34, -25,
  -17, 34, -27, -23, 9, -18, -5, 5,
  -24, 21, -28, -43, -40, -7, -7, 46,
  -53, -6, -30, -27, -25, 17, 58, 42,
  12, 22, 111, -37, -5, -6, -15, -60,
  -2, 30, 14, 22, -17, -36, 29, -30,
  17, 30, -37, -29, 34, 32, 11, 59,
  5, -32, -13, -31, 0, 20, 29, 10,
  2, -52, 41, 44, 86, 25, -10, -12,
  -1, 27, -32, -56, 39, -16, 14, 66,
  4, 6, -78, 16, -33, 2, 54, 13,
  -33, -22, -51, -7, -16, -76, -30, 18,
  34, 46, -13, 50, 32, 18, -17, -24,
  -21, 19, -2, -23, 2, 13, 28, -12,
  -22, -28, -17, -22, 12, 63, -19, -58,
  -18, -44, 53, 45, 39, -3, 25, 16,
  -30, -3, -28, -5, 18, -38, 4, 34,
  59, 18, 45, 24, -45, -9, 14, -31,
  -10, 40, 54, 28, 2, -24, -20, 9,
  25, 4, 44, 15, -12, -16, -19, -12,
  -8, 17, -64, 8, 50, 0, -17, 21,
  48, 3, 22, 61, 35, 28, -38, 44,
  38, -2, -32, -33, 60, 6, 4, 26,
  -35, 46, 5, -64, 56, -36, -54, -12,
  -40, 33, -12, 35, -43, 20, 15, 9,
  -1, 23, 34, 38, -18, 19, -35, 30,
  4, 49, -77, -18, -2, -26, 33, 41,
  0, 33, -11, 16, -33, 19, 31, 21,
  -33, -18, 19, -14, -5, 8, -20, 30,
  33, 18, 30, 13, 10, 75, 0, -41,
  -39, 5, -34, -13, -14, -35, -37, -31,
  2, 20, 34, -60, 25, 9, -28, 25,
  24, 42, 6, 28, -2, 29, -13, 60,
  5, 0, 13, -2, -23, 42, -2, 38,
  -18, -23, 18, 48, -27, 45, -44, 20,
  -11, 34, 46, -6, -40, 6, -26, -7,
  15, -27, 9, 8, -33, 12, -22, -46,
  -22, -22, 13, 2, -15, -19, 35, 27,
  -15, -30, 4, -43, 15, 9, -12, 49,
  -51, -14, -7, -22, 81, -10, -1, 36,
  -8, 30, -13, -24, 17, 46, -11, 15,
  -32, 17, 0, -15, 9, 14, 8, -3,
  -32, 10, 1, -7, 37, 24, 31, 5,
  -23, -21, 38, -4, 68, -27, 37, -29,
  15, 7, 2, -11, 19, 8, 10, -28,
  10, -29, -40, 34, 38, -13, -19, 26,
  41, -19, -46, 31, -25, 49, -20, 19,
  -33, 37, 3, -15, -17, -80, 17, -17,
  -2, 41, 37, 3, -6, 42, -42, -5,
  -27, 35, -31, -65, 21, -7, 10, -1,
  8, -3, -46, -37, 62, -24, -32, 5,
  -14, -47, 30, -4, -7, 17, 16, -51,
  17, -32, -46, -8, -19, 25, -31, -26,
  -17, -5, 11, 17, -13, -29, 11, -37,
  -30, 0, 55, -32, -19, -11, 22, 11,
  -23, 7, -18, -29, 29, 29, 15, -22,
  -4, -25, 91, -29, -35, -2, -52, 58,
  -13, -16, 56, -8, -8, -50, -17, -48,
  23, 33, -25, 54, 5, 15, -30, 10,
  -29, -24, 18, -9, -74, 6, 7, -35,
  19, 15, -15, 41, -18, 20, 15, -60,
  12, 5, 31, -27, -6, -9, 1, 27,
  -51, 10, 23, -1, 14, 16, -14, -22,
  25, -4, -27, -18, 11, 18, -2, -31,
  -8, -22, -16, 0, -13, 12, -46, 55,
  -10, 48, 2, -1, -22, -65, 39, 15,
  -10, -13, -18, -11, -41, 33, -33, 19,
  2, -13, -13, 42, -39, 6, -12, -34,
  25, -4, -21, 10, 20, -32, -17, 0,
  -5, -38, -28, -26, -2, -53, 13, 38,
  -54, 16, -4, -1, -41, 8, 36, 32,
  -7, 27, -6, -35, 29, -24, -41, 12,
  -19, -37, 27, -23, 23, -14, -29, -24,
  -32, 14, -39, 15, -2, 10, 6, -43,
  42, 6, 22, 7, -49, -10, 58, -36,
  4, -21, 33, -7, 8, 6, 18, -45,
  13, -26, 46, -4, -20, -39, -32, 34,
  -23, -37, 12, 27, -8, 17, -16, -14,
  10, -17, -22, 20, -5, 0, 16, 20,
  10, 50, -11, -14, -7, -12, 21, 6,
  19, 10, 1, -30, 6, 14, 48, -4,
  -3, -10, -10, -5, 14, -7, -43, -37,
  -5, 10, 45, -4, -3, 47, 35, -15,
  -17, -42, -1, 54, -2, 20, 25, 24,
  -9, 25, -2, 1, 11, -30, 38, 33,
  -1, 9, 73, 40, -29, -15, 8, 21,
  -39, 27, -18, -3, -8, 8, -34, 16,
  -24, 1, 6, 49, 23, 3, 9, 38,
  35, 20, 13, 27, -5, 1, 50, -10,
  37, -15, -25, -17, -29, -9, 10, 29,
  -2, -5, -69, 44, -49, -52, -29, -2,
  6, 18, 11, -15, 9, -10, -13, 25,
  -5, 10, -2, 40, -53, 30, -62, -3,
  -35, -44, -82, -62, -33, 31, 38, -4,
  24, -10, 43, 11, -25, 2, 69, -31,
  55, -4, 16, -24, 34, 32, 38, 83,
  44, 74, 10, -47, 42, 0, 23, 12,
  16, 25, 35, -49, 45, -36, 106, -40,
  21, -46, -81, 12, -50, 17, -15, -12,
  23, 21, 72, -39, 1, -6, -44, 2,
  21, 22, -33, -37, 11, 9, 44, 17,
  4, -51, -102, 4, 3, 31, -1, 98,
  3, -23, 8, -40, 14, 41, 27, -43,
  26, -52, 21, 67, -26, 31, 23, -2,
  -34, -40, 27, -39, 44, 5, 16, 5,
  54, -28, 4, 40, 33, -33, 26, 3,
  -12, 31, 2, -27, -19, 18, -43, -18,
  52, -5, -21, 12, 46, -22, 14, -13,
  -45, -33, 34, -5, 3, -15, 40, 18,
  3, 7, 35, 17, -37, 27, -4, -3,
  -3, -4, 41, -15, -17, -19, -29, 5,
  -9, 28, 40, -6, -42, -6, -5, -37,
  -45, -8, 67, -26, 12, -53, -39, 4,
  -14, -5, -20, 72, 10, 11, -13, 2,
  -13, 73, -13, 39, 26, 0, -44, -9,
  1, -39, -39, -18, -59, 17, 15, 21,
  4, 42, -23, -18, 7, -12, -4, -15,
  10, 14, 17, -25, -6, 6, -32, -6,
  -13, -13, 24, -49, -14, 36, 34, 24,
  25, -14, 53, -21, 5, 26, -44, 4,
  -9, -29, 2, -28, -38, -50, 13, 0,
  -3, -23, -10, 3, -30, -14, 37, 21,
  19, 13, 33, 19, 0, 32, 9, -1,
  0, -38, -27, 9, 41, -36, 28, -58,
  0, 3, -10, 14, -45, -5, 7, 27,
  -28, -3, -28, -20, -17, -20, 29, 16,
  16, -39, 8, 32, -27, -30, -9, 17,
  -3, 10, -19, 39, -4, 9, -14, -8,
  13, 33, 26, 51, -33, -29, -10, 37,
  -33, -56, 16, -64, -35, -40, 22, 24,
  6, -21, -34, -26, 1, 5, -10, -45,
  -7, 20, 1, -18, -18, -2, -38, 1,
  31, -3, -26, 9, 33, 27, -3, 46,
  -4, -9, 7, 49, 13, -2, -12, -25,
  -7, 19, 19, 25, -37, 7, 7, -21,
  -9, 10, 11, 17, -9, 16, -39, -1,
  9, 21, 20, -12, 8, 28, 6, 23,
  25, 22, -19, -23, 1, -82, 34, 36,
  3, 6, 54, 2, 20, 1, -33, -6,
  -13, -15, 1, -11, 54, -12, 6, -27,
  -35, 9, 27, 20, 1, -39, 23, 18,
  -10, -4, -30, -47, -18, 5, -29, -18,
  -39, 22, -25, 12, 29, 5, 13, 3,
  -33, -27, 19, -32, 32, 46, -8, -41,
  27, -48, 29, 20, 35, 7, -17, 24,
  -19, 10, -38, -1, -16, -32, -24, -33,
  19, 22, 35, -57, 45, -45, -10, 68,
  11, -51, -38, -56, -28, -18, 33, 26,
  -9, -36, -62, 13, -38, 5, -32, -31,
  7, 17, -24, -45, 26, -8, -6, -16,
  17, 20, 41, -63, -31, 33, -53, -23,
  26, -28, 5, -2, -32, 21, 18, -22,
  -72, -29, -14, 21, 20, -9, -37, 23,
  -13, -38, -2, 24, 0, 65, 27, 8,
  19, -18, -19, 19, 35, 2, -36, 53,
  1, -8, -10, -87, -21, -13, 1, 14,
  -26, 13, 27, 32, -39, -19, -43, 3,
  10, 32, -20, -13, 43, -18, 45, -21,
  -6, -7, -1, -38, 47, 4, 54, 12,
  -22, 14, 5, 26, -4, 35, 18, -17,
  34, -21, 21, -8, -44, 6, 43, 20,
  -10, -36, -14, 32, -4, -7, -8, -2,
  -62, 5, 39, -2, -7, 19, 25, 30,
  4, -20, 4, -48, 35, 29, -54, 12,
  -8, 2, 19, 25, 9, 0, -56, 8,
  -17, -74, -15, -83, -4, 40, 36, 92,
  17, 23, -5, -81, 2, 1, -6, 25,
  51, -17, -48, -72, 28, 18, 15, 14,
  67, 17, -27, -78, -30, -7, 19, 2,
  -11, 2, -4, 24, 24, 7, -4, -42,
  -24, 4, 59, -28, -2, -34, -16, 36,
  44, -12, -55, -7, -24, -32, -10, 49,
  24, -39, -33, 19, 9, 40, 1, -17,
  9, 37, -50, -54, 8, 4, 21, 35,
  21, -31, 29, 13, 27, -3, 14, -58,
  -6, -43, -26, -7, 1, -9, 28, -48,
  14, 16, 31, -31, 5, 17, -20, 9,
  -25, -27, -28, 22, 32, 19, 38, -3,
  -14, 42, 21, -18, -17, 16, -1, 4,
  -52, 11, 31, -1, 29, -18, -30, 5,
  -9, 11, -7, -23, 23, -32, -33, 2,
  34, 25, 25, 12, 71, -7, -6, 2,
  -40, 42, 31, 12, -43, 12, 3, 11,
  22, -1, 1, -13, -58, 57, 19, -22,
  -25, 4, -91, 75, -24, -9, -3, 63,
  28, 34, -25, -29, -5, 63, 5, 7,
  18, -21, -28, 19, -29, -14, 5, 5,
  -23, 94, 41, -22, 50, 38, -2, -24,
  -8, 34, 38, 3, 22, -16, -23, -32,
  4, 25, -41, -67, -7, 9, 14, 33,
  -2, -10, -50, 23, -16, -13, -36, 61,
  -33, 49, 15, -27, 43, -16, 0, -13,
  4, -17, -30, 69, -14, -31, 13, -10,
  8, 15, 35, 46, 4, -20, 11, 36,
  6, 24, -11, 35, 4, -15, 16, 6,
  -10, -23, -10, 24, -5, -61, 12, -3,
  -3, 24, -34, -33, -37, -44, 20, -2,
  -25, 47, -12, 11, 13, -15, -37, 12,
  5, -23, 10, 26, 0, -5, 25, 15,
  54, -35, -27, 13, 10, -41, -5, 11,
  -37, 7, 4, -13, -18, 15, -4, -17,
  -1, -18, -25, 4, 51, 5, -38, 35,
  12, 14, -61, 72, -45, 48, -1, 25,
  -17, 42, 25, -61, -25, -39, -4, 21,
  32, 15, 19, -46, 12, 13, -12, -41,
  -27, 14, 80, 30, 23, -19, -44, -17,
  -22, 9, 23, -31, 4, 8, 0, -6,
  -5, -27, -48, 23, -33, 54, 17, -17,
  17, 4, -7, -18, -34, 47, -43, 8,
  11, 44, -21, 16, -51, 8, 27, 24,
  -21, -6, 9, -17, 29, -9, 8, -50,
  -5, -23, 13, 20, 64, -25, -31, 10,
  -54, 11, 26, -1, -27, 8, -29, 14,
  -12, 38, 12, -27, -5, 24, -9, 41,
  -21, 11, 42, -9, 18, 12, -15, -30,
  24, -34, -38, -31, 3, 9, 1, 13,
  10, -32, 21, -42, 9, 0, 4, 27,
  6, 30, -17, 26, 19, -13, -34, -8,
  0, 85, -48, -36, -9, -17, 50, 41,
  -46, 9, -18, -11, -35, -69, -13, -12,
  -14, -43, 2, -8, -10, 29, -26, -32,
  42, 32, -36, -48, 10, -43, -33, -52,
  -15, -66, -8, -36, -31, -43, 31, -9,
  -25, 31, 12, 35, -1, -1, -10, -53,
  -51, -40, -12, -31, 42, 17, -55, 2,
  -27, -19, -18, -5, 35, 3, -14, 37,
  12, 15, 13, -30, 34, -14, 13, -4,
  -58, 51, 31, -41, -33, -5, -11, -1,
  8, -14, -40, 28, 34, 9, -14, 15,
  8, 15, -28, -21, -43, -7, -26, -6,
  -56, -21, 5, 18, -22, 18, -14, 36,
  -18, -20, -26, -41, -59, -25, -16, -29,
  39, -37, 15, 3, -25, -39, -5, -14,
  1, 20, 1, -42, -45, 26, -21, 18,
  -41, 5, 32, 15, 56, -18, 18, 36,
  21, 45, -30, -14, 71, -11, -40, 21,
  30, 23, 103, -46, -11, 22, 27, -12,
  49, -20, -36, -44, 74, -3, -23, 13,
  -61, 22, -43, 26, -25, 54, -35, -26,
  -5, -36, -12, -47, -2, -1, 5, 9,
  -4, 22, -22, -17, 22, 15, -11, 30,
  2, -68, -16, -19, -10, -17, 9, 32,
  -35, -3, 11, -13, -38, -26, -32, -20,
  -41, 18, -55, 36, 5, 41, 10, 15,
  -22, 13, -24, -15, 34, 29, -21, 44,
  40, 25, 0, -30, -42, -38, -24, -25,
  0, 31, 18, 39, 37, 43, -57, 6,
  50, 60, 38, 24, 53, 34, -44, 4,
  15, 11, 1, 36, -13, -5, 23, -7,
  31, 3, -21, 16, -13, -43, 20, -7,
  43, 19, -15, -8, 11, 11, 27, -10,
  25, 3, 23, -22, 29, 18, 40, -48,
  37, -15, 43, 9, 0, -21, -37, 11,
  30, -13, -5, -35, -37, 30, -17, 30,
  31, -2, 29, -3, 6, -62, -48, 42,
  26, -8, -56, 14, -5, -16, -18, 39,
  24, 15, -32, 80, -29, 20, -32, -71,
  -12, -13, -8, -7, 50, 16, -21, 22,
  13, -29, 19, -18, 0, 29, 35, -42,
  -8, -5, 41, 17, 11, -27, -34, 35,
  -4, 30, -30, 2, 5, -33, -4, -23,
  -1, -39, 7, 15, 13, 14, -15, 19,
  -16, -30, 36, -12, -19, 11, -6, -3,
  22, -11, 32, 2, 24, -5, -4, -7,
  29, -4, 48, 11, -6, 29, 49, -40,
  -8, -12, 18, -16, 61, 55, 8, 39,
  -5, 45, 8, 16, -23, 21, 16, 41,
  7, 10, -18, -13, -22, 8, 3, 19,
  8, 44, 6, 21, 20, 0, -34, -1,
  -29, 41, -17, 31, -17, -8, -31, -17,
  -47, -27, 24, 7, -4, -22, 0, -27,
  14, -11, 0, 6, -26, -17, 6, -17,
  -38, 70, 12, 48, -49, 10, -122, -78,
  31, -44, -28, -27, 36, 104, 23, 19,
  -9, -71, -18, 23, -38, 17, -42, -9,
  91, -8, -22, -31, 33, 21, -32, -11,
  34, -14, 1, -37, 19, -6, -29, -6,
  17, 69, 11, -18, 52, 80, 34, -11,
  -60, 4, 9, -53, 20, -30, 16, 43,
  -4, 33, 36, 29, -24, 39, 38, -9,
  33, 21, -17, -45, -24, -26, 13, -11,
  -43, 83, 39, -55, 36, -35, 24, -18,
  -26, -52, 39, -5, 37, 6, 112, 32,
  -26, -26, -56, 51, -27, 1, 35, -14,
  -5, -24, 20, -9, -10, 19, 6, -23,
  4, 32, 9, 13, 16, 18, 37, 53,
  -2, -18, -35, -38, -7, 2, -25, 11,
  -4, -41, 17, 3, 21, -64, 25, -5,
  -10, -41, -33, 14, 5, 2, 27, 21,
  -7, 11, 28, 36, 49, -4, 15, -22,
  -41, -2, 7, 2, 36, -55, 67, 13,
  -56, 21, -9, -32, -17, 22, -18, 26,
  57, -78, 60, -78, -3, -10, -24, -36,
  -17, -8, -18, -33, -19, -44, -55, -27,
  4, -34, 20, 49, -69, 11, -10, -4,
  5, -34, -44, -19, -15, 26, -5, 22,
  5, -30, -54, -52, 9, 13, 13, -19,
  -1, 45, -9, -6, -6, -32, 6, -14,
  -16, -3, -23, -2, 26, 8, 28, -40,
  19, -10, 58, 9, 11, 126, 26, 8,
  0, -10, -26, 10, 9, 39, -5, 14,
  13, -61, 0, 27, -45, 21, 18, -33,
  0, 20, -38, -24, 32, 10, -20, 54,
  0, -20, 36, 44, -15, 15, 15, 1,
  4, 17, -3, -23, -15, -6, -26, 14,
  -27, 0, 12, 26, -15, -2, 18, -1,
  25, 5, -13, -16, -6, -7, -36, -22,
  18, 42, 40, -2, 36, 50, 67, 5,
  22, -1, 3, -17, -17, -23, -18, 2,
  -20, 8, 12, 14, -17, -7, -17, 16,
  -2, -10, 0, 1, 0, -6, -18, -24,
  3, 11, 1, -1, -20, -3, 0, 13,
  4, 12, -4, 19, -21, 23, 4, 0,
  -30, -2, -4, 12, 9, -25, -8, -19,
  27, -19, 34, -10, 32, 2, -9, 15,
  19, -3, 7, -31, 11, 0, -9, 22,
  15, 10, -19, -3, 3, 19, 23, 39,
  -1, -31, -12, -37, -31, -9, -6, 17,
  14, -7, -24, -25, 9, -29, -18, 12,
  30, -24, -11, -21, -18, -27, -8, -12,
  -12, 21, 9, 6, -16, -40, -9, 15,
  -11, 1, 2, -32, -8, -6, -2, -13,
  -5, -22, -8, 2, 21, 4, -19, 12,
  -13, -27, -28, -23, -3, -2, -20, -6,
  -12, 11, -5, 12, 19, 18, -6, 2,
  -16, 32, 7, -9, 24, 3, -31, 9,
  -3, 22, 15, -27, -26, 18, 21, 26,
  -2, 48, -4, 10, 34, -16, -21, -13,
  -25, 22, -9, 27, 3, -4, -19, -22,
  -20, -14, -4, -2, -9, 18, 1, 9,
  17, 28, 20, -3, 13, 12, 11, 0,
  -15, 18, -9, -16, 1, -18, 0, 19,
  -29, -3, -61, 56, 11, -54, 50, -49,
  6, -1, 10, -37, -14, -2, -18, 30,
  -4, -13, 16, 5, -22, 32, 52, 37,
  -19, -24, -20, -14, -13, -2, 22, -2,
  -9, 16, 3, -38, -14, -14, -17, -17,
  -26, 49, -28, -16, -32, 32, 1, -37,
  -6, 8, -10, -17, -7, -31, -9, 38,
  0, -31, 45, -20, -33, -5, 36, 3,
  -12, -37, -12, 2, -2, 11, -33, 19,
  34, 22, -25, -2, 11, -25, -23, -9,
  3, 19, 44, -25, -4, 5, -20, -38,
  13, 46, -21, 34, 13, -17, -21, 9,
  -61, 17, 81, 28, -13, 3, 2, -23,
  48, 36, -54, -18, 22, -27, 19, 42,
  -21, 6, -8, 37, 32, 3, 22, -5,
  -8, -24, 24, -25, -2, -5, 29, 4,
  1, 1, -20, 48, 34, 4, 21, 24,
  -19, 2, -2, -10, 20, -9, 12, 22,
  35, 38, 31, -39, -28, 54, 53, 49,
  -15, 7, 15, -27, -11, -47, -27, 72,
  31, 18, 18, -15, 50, 11, -10, 36,
  -12, 28, 19, 31, -17, 14, 4, 21,
  -41, -26, -54, 6, 43, 35, -8, 14,
  4, 47, 36, 21, 13, -4, 17, -21,
  29, 29, 3, 48, -4, 0, 54, -25,
  -1, -47, 63, 17, -32, 4, -14, 20,
  -8, 13, 22, -35, -24, 6, 22, 37,
  9, 14, 29, -7, 34, -36, -45, 27,
  -8, -17, 34, -31, -33, -12, -8, -41,
  -10, 2, 48, -7, 22, -24, 31, 9,
  -32, -39, -15, 56, 9, -13, -13, 6,
  39, -19, 15, -28, -67, -22, 18, 39,
  23, -10, -39, 39, 5, 27, 44, 0,
  2, -6, 0, -2, -14, 18, 18, -13,
  -67, -5, -91, 8, 20, 11, -6, 44,
  34, -13, 6, -52, 17, 3, -1, -13,
  65, 2, -34, 48, 3, 30, -2, -89,
  22, 40, 20, 16, -1, -64, -59, 64,
  -38, -30, 16, -42, 21, 24, 46, 18,
  -2, -48, -13, -22, 17, -7, -38, 26,
  49, 41, 30, -14, -9, -19, 37, -13,
  -11, 31, -16, 30, -11, 26, -34, 26,
  8, -18, 2, 18, 7, -15, 53, -19,
  20, -1, -21, 30, 38, -13, -3, 33,
  40, 15, 30, -64, -50, -28, 55, 35,
  -41, -22, 3, 14, 52, 47, -45, 16,
  7, 3, 6, -27, 5, 0, 14, -9,
  9, -6, -30, -56, -11, 23, -5, -3,
  10, -15, -45, -19, 36, 23, -56, 43,
  12, -51, 108, -21, -36, -9, 38, 41,
  23, -13, -42, 108, 15, -10, 51, -27,
  62, -27, 35, -57, -17, -37, -22, -4,
  -72, 21, -114, -126, -2, -69, -29, 43,
  -39, -11, 29, 39, 54, 32, 18, 14,
  -4, -5, 19, -48, -8, 31, -45, 17,
  53, -17, -9, -21, -82, -44, -64, -4,
  36, -44, 32, -46, -28, -17, -53, 51,
  -1, -3, 23, 51, 20, 17, 0, 13,
  9, 39, 25, 31, -48, -22, 5, -52,
  -4, -26, -12, -12, -17, 32, -35, 33,
  9, -16, 57, 24, -13, 43, -33, 3,
  60, 54, -71, 28, 8, -6, -45, 18,
  -6, -3, 50, -2, -16, 4, -1, -9,
  -49, -3, -14, -22, 23, 36, 22, -24,
  -9, 17, -4, 11, 31, 15, 13, 15,
  13, -35, 50, 47, -8, -16, 23, -3,
  -35, 44, 16, -19, 59, -21, -58, 85,
  -14, -46, 89, -8, 17, -25, 35, -58,
  3, 21, -22, -62, 27, -8, 15, 51,
  -25, 10, 34, 19, -9, -28, -117, -24,
  -24, 14, -91, 56, 10, -34, -49, 13,
  44, 7, -5, 36, -3, -22, 35, 60,
  -5, 51, -18, 13, 32, 5, 0, -12,
  -94, 29, 66, -24, 10, -17, -31, -56,
  -12, 28, 45, 39, 78, 27, 36, 1,
  -35, -48, 0, 64, 17, -8, 24, -30,
  -29, 48, -24, 7, -23, -4, 40, 0,
  -42, 52, 56, 8, -61, -30, 93, -52,
  -34, -25, 14, -42, 35, -42, -64, 0,
  31, 67, -20, -2, -8, 23, -15, 0,
  -13, 2, 40, -2, 46, 2, -36, -28,
  -3, 15, -1, 3, -23, -5, 49, -28,
  -37, 3, 36, 39, 33, 15, -36, 18,
  6, 14, -39, -23, -15, -5, 37, -12,
  -10, -103, 73, 85, 68, 22, -113, 73,
  11, 1, 12, 27, 127, -11, 71, 26,
  51, 0, -38, -101, -4, 25, 71, 126,
  -24, 18, 112, -7, -11, -93, -78, -82,
  61, -45, -125, 17, -27, -40, -82, -58,
  99, 79, 83, 40, 21, 40, 32, 108,
  -11, -30, -23, 2, 78, 19, 6, -66,
  -114, 67, -80, -41, -2, -75, -59, 111,
  22, -96, 68, 127, 18, -64, -57, -6,
  69, -23, -8, -23, -109, -22, 12, -63,
  -122, 38, -44, 7, 31, 17, -55, 1,
  55, 20, 27, -17, 81, -82, 54, -48,
  -22, -25, -128, 1, 82, -26, -127, -24,
  -120, 127, 126, 23, 22, -45, -79, 46,
  0, 87, 52, 127, -13, -83, 2, -127,
  -30, 48, -21, -7, -77, 79, 114, -20,
  -3, 68, 67, 97, -2, -33, -1, -20,
  -44, 2, 103, 4, -81, -13, 43, -23,
  35, 88, 22, 80, 48, -20, 76, 68,
  -30, 20, -87, 44, 103, 8, 0, 29,
  26, -15, -23, -103, -64, 17, -33, 70,
  -4, 7, 27, 2, 73, 30, 127, 43,
  -18, 11, -126, 95, 6, 60, 55, -121,
  69, 119, 91, -128, 76, -127, -16, 19,
  -41, 95, -62, 53, 1, 78, 40, 27,
  30, 126, -50, 88, -92, -117, -87, 75,
  4, -41, 56, 126, -19, 48, -45, -35,
  -62, -43, -23, -23, 45, -13, -50, 48,
  68, 21, -20, 17, -53, -77, 73, 60,
  -106, -41, 24, 91, -34, 102, 30, -3,
  -52, 125, -64, 22, 62, -56, -78, -24,
  -21, 107, 120, -3, 87, -77, -48, 23,
  22, 15, -3, 82, 50, -23, 19, -51,
  34, 25, -7, -8, -78, 36, 51, 87,
  59, 18, 61, 24, -15, -44, -25, 29,
  -111, 19, -27, 95, -5, 95, -4, -2,
  30, -123, 3, 127, 50, 8, 127, 22,
  67, 127, -1, -104, -127, -41, -18, 48,
  -97, -82, -14, -128, -110, 10, 77, 112,
  73, -28, 108, -126, 127, -9, -40, 48,
  71, -101, -100, 113, -91, -49, 10, -40,
  16, 73, 76, -81, -5, 19, 29, 78,
  20, -6, -6, 44, 42, -36, -41, -14,
  50, 29, 4, 26, -79, -122, 34, 50,
  99, -2, 27, 35, 49, 36, 42, 5,
  -19, 45, 10, -107, 23, -10, 4, -30,
  90, 71, -42, -38, -47, 21, -124, 37,
  -14, 15, -82, 73, 34, 40, -96, -34,
  -25, 69, -10, 105, -62, -24, 0, -12,
  81, 67, 19, -12, 71, -48, -48, 33,
  32, 52, 22, 127, -6, 46, -34, -9,
  -23, -2, 44, 104, -81, -44, -55, -66,
  71, 83, -31, -80, 34, -53, -109, -5,
  34, -17, -109, 27, -2, 85, 86, 30,
  112, 15, -38, 127, -85, -80, 18, -42,
  27, 117, 49, -122, 21, 39, 100, -127,
  -39, 15, -37, -38, -67, -24, 30, -43,
  -26, -58, -14, 55, 95, 1, 44, -89,
  78, -18, -12, 11, -37, 3, 86, 120,
  -71, 118, 15, -33, -72, 122, 94, 29,
  -31, 26, 33, -79, -50, -71, -52, 40,
  -29, 60, -109, -41, 83, -70, 40, -63,
  -52, -6, 97, -7, -74, -1, -61, -36,
  -105, -128, -53, -56, -23, 8, 78, -60,
  123, -19, -92, 45, 63, 3, -66, 1,
  -24, 117, -22, 16, 65, 4, 7, -122,
  -82, -11, 11, -12, -40, 12, -41, 57,
  37, 79, -85, 36, -11, 55, 90, 1,
  12, -13, 24, 104, 21, 85, 37, 91,
  42, -17, 10, 31, 13, 50, -36, 23,
  84, 1, 51, 60, 39, -23, -91, 70,
  -60, -23, -56, -43, 9, 38, -66, -64,
  47, 21, -62, -125, -3, -19, -1, 48,
  52, 127, 30, -112, -18, -25, 75, -1,
  21, 7, -128, 78, 83, 27, -76, -24,
  -47, 38, 54, -113, 14, -63, 86, 45,
  49, -33, -115, -25, 31, -45, 113, 18,
  66, 3, 23, 127, -55, 2, 43, 57,
  29, 119, 1, -92, 88, 11, 46, -124,
  -32, -99, 123, 34, 6, -24, -25, -38,
  -26, -12, 10, -44, 63, 15, 108, 32,
  49, -97, 30, 30, 65, 33, 91, 2,
  -32, 71, 69, 121, -1, 57, 47, -69,
  -32, -41, 10, -47, 91, -113, -79, -77,
  -32, 76, 8, -128, 61, 11, 91, -114,
  4, -6, -10, 34, -30, 102, -6, -76,
  -41, 20, -87, -99, -20, 72, 54, -45,
  105, 49, -59, -25, 31, 34, 71, 8,
  38, 10, 17, 4, -33, -93, -52, -68,
  14, 106, -125, -22, 65, -7, 53, 34,
  -84, -48, 127, 90, 38, -18, 104, 55,
  -39, -57, -9, 11, 30, -48, -103, 65,
  -7, 85, 99, 45, 90, -4, 10, -39,
  -128, 106, 119, 55, -103, 25, -122, -22,
  64, -47, 43, 27, 83, 68, 127, -48,
  -27, 15, -120, 127, -59, 17, 2, -57,
  86, -54, 6, 20, 15, -56, 125, -126,
  -69, -110, 127, 47, 127, 15, -65, 31,
  -3, -65, 48, -128, 20, 34, -13, -28,
  -27, -128, -13, -35, 48, -117, 71, 56,
  93, 49, -56, 127, -118, 1, -128, -35,
  -69, -9, 44, 7, 46, 52, -8, 23,
  -8, -98, -112, 50, -36, 38, 127, 9,
  -91, -53, 125, 41, -20, 47, -97, -25,
  -99, -13, 67, -128, -42, -60, 10, 24,
  73, 43, -17, -1, 127, -34, -38, 7,
  127, -38, 47, -120, -112, -32, -26, -31,
  -2, 73, 29, 27, 13, -59, 47, 29,
  -86, -127, 127, -70, 20, -28, -51, 105,
  -88, -42, -58, 26, 41, 16, 16, -41,
  91, -56, 24, 126, -13, 15, -123, -46,
  -23, 8, 98, 127, 77, -35, -128, -12,
  -4, 25, 16, -21, -40, -108, 34, 29,
  73, 94, -20, 113, 5, 66, -128, 61,
  -65, -12, 11, -90, -79, 78, -67, -23,
  92, -115, -81, -127, 12, -77, 77, 41,
  -44, 76, 19, 108, 17, -21, 14, -5,
  -3, 68, -34, 78, 121, -51, 44, 22,
  95, -53, -17, 116, -75, -15, 29, -52,
  -83, -76, 93, 16, -68, -49, -62, 25,
  -66, 17, 114, -126, 17, -45, 33, -45,
  -31, -34, -14, 77, -79, -76, -37, -61,
  44, -13, 25, -4, -59, 96, 43, -12,
  62, 60, -32, -100, 18, -68, 115, 45,
  111, -71, 33, 7, 14, -27, -35, -47,
  -7, 0, -111, 13, 125, -34, 50, -44,
  6, -2, -66, -124, 9, 89, 88, 1,
  11, -94, 25, 79, -75, -27, -52, -45,
  39, -36, -45, -92, 3, -41, -52, -55,
  90, -16, 36, -61, 26, 40, -128, -73,
  -42, 37, 20, -127, 80, -5, -106, 127,
  -50, -127, 51, 16, 71, 71, -40, -125,
  1, 123, 94, -77, -43, 29, 13, 127,
  -36, -128, -75, 4, 55, 23, 61, 39,
  -3, 32, 5, 127, 16, -71, -66, 61,
  -24, -65, 33, 5, -27, 44, 127, 6,
  -128, 4, 36, 10, -103, 121, -30, -2,
  -90, -17, 110, 54, -36, 29, 15, 68,
  26, 127, 121, -70, -58, -77, 91, 127,
  -1, -121, 11, -28, -5, 66, 29, -23,
  45, 61, 27, 24, 8, 127, -23, -4,
  -34, 2, -28, 50, 11, -41, 26, -46,
  -7, 7, -42, 13, -87, 41, -33, -3,
  -23, 12, 53, 94, 63, 9, 9, -48,
  -125, -54, -57, -12, 127, 44, -66, 67,
  46, 87, 45, 5, 81, 2, 26, -103,
  120, 107, 49, 3, -97, 36, -59, -110,
  -50, 36, 38, -1, 53, -67, -8, 81,
  40, -13, -102, -67, -64, -43, -23, 3,
  11, 107, -60, -6, -43, -6, 45, 28,
  -61, 31, 1, -75, -16, -33, -9, 35,
  -45, -127, 54, -128, -67, 93, 35, 69,
  -95, 42, -86, 6, 30, 93, 13, 69,
  1, -126, -78, 116, 107, -93, 2, 122,
  -26, -49, -30, 50, -44, 117, 31, -72,
  -34, -23, -127, -38, 29, -36, -7, -55,
  -15, 52, -27, -69, 104, 30, 54, 53,
  -13, -110, -58, 126, -22, 81, -3, -91,
  22, -95, -56, -25, -16, 82, -27, -33,
  12, -23, 14, -122, 73, -69, -77, 29,
  -14, -93, 87, 38, -28, 59, -84, -24,
  0, 21, -3, -51, -41, -31, -32, -128,
  27, 72, -84, 126, 10, 27, 54, -7,
  103, 21, 14, -94, 47, 73, -91, 52,
  94, -43, 51, 121, -42, 76, 33, -123,
  -30, -5, -17, 87, -31, 27, 15, -83,
  -53, -23, -87, 21, 76, 14, 99, -29,
  36, -17, -9, 14, -125, 127, -57, 59,
  127, -127, -96, 27, -20, -51, -25, -20,
  -48, -79, 17, 54, -17, 13, -12, 85,
  -127, 20, -128, 19, 38, -79, 1, 45,
  71, -40, -9, -41, 33, -128, 48, -64,
  127, 72, 10, 73, 6, -44, -52, -31,
  -91, -38, 29, -48, 102, -61, -31, -30,
  114, 72, -96, -36, 33, 42, 33, -34,
  -3, -73, -60, -36, 29, -29, -30, -102,
  -21, 15, -91, 16, -14, -43, -43, -44,
  45, 22, 12, 56, 127, -83, -9, -51,
  98, 4, -12, 9, -33, -14, -51, -89,
  -10, 60, -39, -2, -5, -28, 58, -70,
  -91, 80, -122, -77, -62, 10, -25, 21,
  24, 89, -128, 127, -66, 127, -127, -74,
  -10, 3, 95, -4, -116, 89, 53, -42,
  -61, 8, -125, 92, 49, -92, 35, -18,
  -31, -103, 23, -22, -26, -80, 28, 46,
  55, 127, -7, -4, -128, 72, 40, -34,
  -61, -87, 109, -126, -32, -34, 35, 4,
  21, 31, -46, 93, -35, -63, -27, 62,
  -68, -114, -18, 127, 19, -54, 127, 37,
  127, -61, -128, -24, -21, -71, 18, -8,
  8, -1, 104, -28, 1, -56, 62, 14,
  82, 125, -36, -111, 38, -18, 49, -16,
  -84, 28, 71, -48, -28, -12, 93, -26,
  28, -45, 36, -68, 69, 23, 14, -60,
  -58, -38, -46, 99, 44, 63, -44, -70,
  -45, -37, 45, 18, -31, 38, 41, 42,
  -37, 30, -49, 108, -15, 8, 7, -19,
  42, -30, -37, -37, 32, -53, -30, -33,
  3, -87, -6, 98, -82, -50, 10, -13,
  27, 125, -31, -120, 94, -99, -11, 42,
  123, -41, 113, -52, 32, 55, 123, 7,
  -2, -128, 9, 45, -51, -98, 127, -128,
  -127, -115, -20, -128, -64, 10, 23, 127,
  -117, 46, 24, -65, 124, -123, 3, 67,
  -49, -124, -78, 123, 20, -11, 1, -12,
  110, 3, -86, 115, -24, -127, -31, -34,
  66, 57, -84, -59, -69, 24, 54, -98,
  10, 5, -104, 2, 47, -126, -126, -45,
  12, -6, -33, 54, 39, -39, -127, 15,
  64, 40, -3, -28, 84, 51, 8, -27,
  -11, -54, -8, 121, -38, -3, 19, -59,
  21, 27, 64, -78, -64, -46, -2, -12,
  -11, 109, -41, -4, -69, -88, -68, 56,
  -54, -47, -62, 33, 50, -28, -31, -47,
  -74, -18, -12, -21, -54, 3, -73, 37,
  83, -46, -20, -23, -76, 91, -80, -28,
  -90, -116, -84, -1, 31, -50, -93, -72,
  41, 21, -5, 43, -73, 95, -69, -35,
  127, -3, 127, 22, -83, 12, 85, 24,
  127, -87, -27, 27, -66, 52, 120, -128,
  9, 11, 76, -128, -90, -11, -111, 124,
  -15, -55, 117, -52, 87, -57, -69, -16,
  -70, -120, -49, 25, 127, -10, 61, 127,
  119, 18, -38, -102, 38, -34, -13, -62,
  43, -73, -2, 23, 46, 20, -44, -66,
  38, 38, 8, -10, 43, 14, -82, -96,
  91, -71, 41, -126, -15, -95, -79, 88,
  2, -17, 87, -98, -27, 51, 69, 41,
  -84, -101, 77, 75, -100, -13, 47, 46,
  94, 19, -18, 82, 11, -2, -2, -78,
  22, 34, 11, 93, -42, -76, -49, -74,
  -76, 11, -23, 0, -17, 44, -62, 20,
  68, -103, -41, 36, -22, -16, 0, 33,
  -3, 37, -24, -118, -25, 62, 18, 39,
  -9, -86, 18, 10, -98, 81, 99, 123,
  69, -63, 107, -83, 92, 59, 126, 127,
  85, -128, 33, 105, 119, 113, 127, -23,
  95, -90, 60, -128, 127, -102, 58, -30,
  104, 4, -123, -95, -29, 5, 34, 126,
  -119, 98, 14, 11, 105, -94, -32, 32,
  20, -67, -30, 127, 60, 3, -124, -70,
  -128, 106, -116, -59, 114, 33, -14, 93,
  38, -91, -99, -10, -36, 22, 40, -11,
  -61, 105, -99, -34, 127, 46, -117, -77,
  -68, 5, -87, -118, -7, -3, -78, 45,
  81, -9, 60, -29, -108, -2, -123, -128,
  -96, 29, 59, 87, -8, -40, 19, -14,
  -48, -34, 123, -67, -66, 65, -103, 94,
  -71, -36, -63, -5, -75, -127, -84, -89,
  -126, -59, -101, 61, -77, 68, 4, -5,
  -117, 11, -5, 63, 45, -38, 37, 34,
  70, -78, -11, -10, -87, -14, 54, -5,
  127, -63, 117, -45, 3, 1, -114, -127,
  -128, 36, 109, 1, 50, 8, -101, -76,
  36, 38, -38, 33, -23, -87, 75, 38,
  33, 112, -128, -126, 49, 40, -2, -127,
  -11, 126, 31, -9, 86, 44, 66, -16,
  -79, 38, 66, 2, 36, -12, -89, -3,
  -3, 91, 74, 51, -58, 7, -35, -109,
  -80, 32, 5, 22, 21, -106, -73, 25,
  -91, -99, 94, -56, 112, -101, 100, 73,
  -124, 107, 24, 83, 101, 106, -128, 46,
  70, 67, 37, -74, -25, -34, -127, 28,
  37, -92, 34, 46, 32, 62, -70, -126,
  -45, 2, -11, 99, 57, -41, -123, -80,
  26, 6, 127, -51, -28, -37, -6, -33,
  -20, -65, 127, -63, -113, -125, -30, 64,
  -98, 67, 112, 108, 75, 123, -6, 127,
  31, 74, 20, 17, 15, -13, -4, 69,
  63, -57, 60, -30, -63, 22, 127, 61,
  -13, -91, 127, 5, -42, -29, -24, 92,
  -4, 127, -79, -124, 2, -39, -123, 86,
  7, -126, 37, 58, -19, -128, 43, -33,
  127, -127, 7, -74, -4, -55, 53, -38,
  31, 127, -78, -71, 24, 92, -67, 4,
  13, -71, 88, 48, -108, -82, -128, -4,
  1, 100, -57, 14, -17, -38, 127, 3,
  -8, -11, 125, 39, 127, -24, -85, -33,
  -128, -38, 89, 125, 43, 52, -33, -6,
  -88, -30, -18, -71, 79, 53, -128, -71,
  95, 46, 4, 55, -9, -12, -110, -23,
  -71, -69, -117, 65, -9, 100, -125, -12,
  -53, 95, -116, -17, -33, 62, 84, -11,
  -81, -75, -50, 23, -120, -46, -28, -60,
  -66, 28, 73, 99, -75, -76, -39, 38,
  -108, -4, -40, 23, 47, 116, -10, 13,
  17, 87, 19, 40, -21, 36, -45, 3,
  -81, 22, -107, 14, -69, 27, 127, 90,
  12, 15, -23, -63, -39, -60, -127, -2,
  13, 24, 44, -1, -18, -69, -14, 28,
  -70, 27, -42, -2, 46, -62, -39, -13,
  34, 31, -33, -21, -16, 13, 1, -15,
  -33, -21, -17, -14, 59, -75, 29, -19,
  12, -10, -63, 22, 29, -64, 74, 37,
  -57, -19, 34, -17, 14, 15, -20, 55,
  90, -102, -27, 20, -51, 27, 32, -28,
  67, -18, -33, -5, -11, 59, -9, -7,
  -72, -3, -17, -55, 1, -64, 5, -4,
  -28, -9, 26, -28, 20, -45, 56, -2,
  11, 16, -57, 10, -27, -54, 55, -128,
  70, -28, 52, 56, -123, -42, 7, 3,
  18, -53, -7, 32, 67, -13, 9, -5,
  78, -41, 9, 9, -44, 11, -38, 77,
  -57, -36, 42, -124, -117, -68, 20, 42,
  29, 41, -37, 64, 49, -44, -3, 27,
  45, 15, -7, -23, 64, -27, -87, -47,
  -1, -2, -26, -32, 17, -18, 18, -30,
  5, -10, 5, -33, 61, -53, -53, -6,
  -29, 53, 39, 28, 26, -13, -89, 21,
  -3, -35, -29, -45, -16, 19, 9, -27,
  51, 49, 66, 95, 1, 35, 7, 38,
  29, -31, -17, 60, -30, 27, 15, -19,
  15, 81, 2, 57, 45, 44, -76, 32,
  -15, -128, 72, -66, 47, 49, 55, 101,
  124, -5, -44, 21, 47, 53, -32, -9,
  13, -30, 37, -24, -62, 37, 14, -57,
  -54, 4, -54, -23, -27, 24, 38, -60,
  24, -12, -43, -12, -70, -25, -35, 36,
  21, 117, 1, -24, -113, -40, -34, -55,
  -74, -91, 1, 14, -123, 26, -49, 4,
  53, -51, 5, -8, -83, 29, -31, 93,
  -34, -42, 8, -35, -46, -39, -16, 40,
  -41, -57, -6, 39, 12, 6, -28, 31,
  3, 47, -77, -10, 7, 19, 50, -43,
  50, 37, 34, 42, -35, 59, 127, 19,
  62, -18, -4, -121, -22, -47, 52, -29,
  11, 17, -15, 25, 47, 1, -91, -74,
  -90, 42, 23, 8, 1, 37, 76, -21,
  18, 7, -16, 13, -26, 47, -22, -70,
  -9, -22, 13, -12, 23, -30, 90, 17,
  10, -62, -1, -52, -1, 56, 89, 79,
  -57, -29, 34, -6, -17, -84, -31, -39,
  80, -18, -19, -40, 54, 13, -51, -3,
  -10, -19, 43, -3, -39, 11, -19, -43,
  -31, -22, -57, 27, -26, 35, -18, -24,
  -27, -32, 58, -66, -41, -120, -21, 126,
  -11, -22, -82, 20, -18, 20, 106, 56,
  -72, -37, 64, 49, -89, -79, -11, 40,
  127, 4, 54, -78, 7, -4, 18, -52,
  48, -25, 30, 39, 89, -59, -79, -23,
  -56, 47, -6, -44, -53, 42, 25, -34,
  5, 18, 99, -61, 0, -19, -36, 47,
  80, 98, 28, -52, 29, 17, 60, 42,
  -36, 45, -32, 31, -49, 8, 50, -94,
  -34, -27, -78, 71, -19, 94, -16, -87,
  -49, -8, 12, -28, 22, -45, 34, -12,
  -64, 38, -8, 53, -53, 9, -71, 78,
  -80, 2, 1, -32, 40, 66, 3, 127,
  -45, 101, 17, 124, 24, -64, 113, -38,
  72, 64, 47, 17, -40, -60, 12, 62,
  79, 13, 48, -128, 65, 9, -66, -27,
  5, -29, -114, 11, 7, 28, -68, 101,
  65, -12, -24, -37, 1, 14, 19, -38,
  -55, 58, -125, 29, -118, 53, 67, 16,
  -52, 101, 31, 55, 24, 30, 107, -49,
  97, 23, -43, -105, 112, -115, 94, 57,
  70, 1, -29, -128, -20, -40, -10, 106,
  -61, -41, 29, 58, 123, 20, -83, -34,
  56, -68, -22, -99, -31, -51, 42, -4,
  55, -39, -52, 20, -40, 66, -71, 13,
  36, 34, -100, 60, 8, 17, -127, -14,
  60, -78, 81, 19, -26, -15, 32, -42,
  -83, -33, 15, 19, 66, 79, 118, 35,
  54, -17, -7, 12, 44, -67, -7, 0,
  -17, 16, -47, -84, -19, 50, -28, 79,
  64, 75, 70, 69, 58, 24, -33, 127,
  -70, 35, 117, -50, 2, -12, -10, -95,
  71, 90, 88, -29, -75, -53, -45, 43,
  80, 43, 81, -38, -50, 11, -11, 96,
  36, -35, -116, 65, -4, 50, 55, 11,
  -33, 28, -22, 2, 49, 58, -32, -72,
  99, 84, 6, 62, 34, 38, 18, 88,
  84, 61, 127, 100, -6, -58, -6, -76,
  127, 24, -47, 16, -3, -60, -78, -6,
  93, 43, 59, -61, -20, -34, 15, 18,
  -21, -13, 24, 7, 57, -36, 57, -62,
  -49, -19, 12, -17, 53, 61, 28, -14,
  64, -44, 126, 4, -80, -10, -41, 73,
  -82, -89, -100, -2, 75, 126, -94, -52,
  33, -49, 86, -125, 62, 3, 41, 68,
  -24, -61, -63, 45, 17, 9, 18, -82,
  -19, 15, 44, -76, -76, 4, -107, -15,
  -13, -42, -24, 34, -2, 78, 87, -8,
  -1, 38, -64, -2, -66, 66, -54, -47,
  -76, -54, -20, 49, 11, -103, -85, -12,
  -124, 66, 88, -114, 106, -35, -44, -2,
  -52, 15, 82, 51, 33, -126, 10, -87,
  85, 18, -42, 5, -39, 57, 112, -22,
  -76, -63, -47, 95, 97, 50, -32, -34,
  58, -88, 112, 126, -5, 9, -122, -127,
  -54, 28, 69, -8, 76, 89, -105, -103,
  -21, 127, -2, 19, -95, 38, -61, 20,
  -54, 58, 37, 18, -48, -63, 56, -101,
  5, 41, -25, -39, 7, 44, 68, -25,
  -36, -104, 14, 127, 15, -29, -85, -27,
  58, 44, -68, 102, -13, 7, 39, -93,
  33, 50, 2, -10, 27, 39, 22, 34,
  26, -34, -9, 62, 25, -42, -17, 50,
  3, -44, 13, 13, 15, 29, -13, 125,
  31, -29, -13, -31, 31, -8, -17, 1,
  41, 48, -2, 10, 113, -28, 0, 71,
  36, 31, 19, 8, 32, -49, -31, 35,
  28, 21, -41, -13, 3, -27, -27, 8,
  67, -43, 28, -20, -111, -37, 19, -34,
  6, 25, -42, 8, -9, 47, -57, -7,
  -5, 6, 103, -25, -19, 74, -16, 127,
  17, -20, 5, -16, 26, -60, -104, -17,
  15, 18, 118, 32, 18, -43, 12, -86,
  -30, -14, -7, 8, -79, 63, -81, 30,
  50, -44, 49, 89, 102, 7, -7, 27,
  102, -5, 1, 1, -33, -7, 6, 51,
  -54, 45, 50, -6, -4, 16, -67, 101,
  -25, 65, -9, 40, 26, 23, -25, 29,
  45, -14, 37, 53, 1, 7, 89, -10,
  -69, 10, 65, -19, 16, 60, -52, -38,
  -57, -107, -48, -7, -48, 16, 8, 5,
  2, -47, 94, 16, 39, 83, -18, 55,
  -17, 23, -31, 51, 0, -33, 53, 10,
  19, -28, 28, -47, 17, -5, -76, -4,
  3, 93, -17, 24, 9, 82, 13, 28,
  46, 6, 8, 23, 37, -55, 63, -16,
  -65, 28, -43, -62, 67, -9, -31, 32,
  92, 32, -85, 22, -62, -69, -13, 16,
  127, 40, 44, 66, 36, 54, -9, -23,
  -12, -24, -42, -24, -25, -7, 56, 64,
  -63, -28, 2, 14, -48, 18, 40, 127,
  -23, 27, -23, 1, -67, -31, -30, 1,
  -12, -43, -43, 37, -43, -14, 39, -22,
  50, 39, 16, 35, 33, 3, -8, -30,
  5, -35, 102, -40, 24, 24, -27, 86,
  -16, -115, 10, 82, -25, -1, 19, 17,
  3, -68, 63, 24, 73, 27, 24, -60,
  6, -5, 19, 44, -36, 18, 5, 84,
  28, 59, 7, -39, 8, 63, -8, 51,
  40, 29, 12, 83, 10, 57, -22, -18,
  -126, 52, -76, -30, 22, 78, 2, 26,
  60, 41, -29, -59, -17, -85, 29, -124,
  32, -32, 30, 11, -23, 65, -65, 63,
  -106, -37, -63, -21, 69, 46, 124, 1,
  -32, 61, -87, -41, 66, -20, -17, -47,
  10, -6, 11, -12, 56, 12, 36, 21,
  -18, 20, 16, -23, -93, -56, -76, -36,
  25, 9, -51, -9, 15, 51, 10, 5,
  82, -58, -95, 55, -16, 69, -120, -31,
  -33, -13, -63, 9, -14, -69, -1, 117,
  2, 20, -63, -83, -86, -65, -38, 6,
  70, -39, 58, 26, -38, 21, -6, -128,
  24, 0, 8, 17, -15, -21, -30, -45,
  21, -27, -7, -34, 51, 15, 80, -48,
  78, 14, 1, -22, 43, 7, 55, -28,
  -2, 32, 14, 42, -33, 2, 42, -40,
  -30, -61, -6, -87, -13, -21, 127, -11,
  12, 4, -93, 84, 92, -22, 37, 23,
  6, -55, -56, -66, 17, 7, 90, 77,
  -18, -61, 13, -33, -67, 22, -13, 40,
  67, -97, -81, 64, 89, -11, 0, -94,
  72, 23, 41, 54, 72, 75, -120, 34,
  63, 86, 72, 14, -37, -80, -68, 25,
  30, -18, -23, -77, 117, 84, 45, 76,
  -22, -73, -53, -4, 22, -41, -38, 107,
  -3, 23, 27, -81, -52, -15, -4, -21,
  -56, -101, -75, 77, -13, 13, -78, 25,
  -102, 100, 25, -16, 60, 21, 27, -96,
  6, 25, 15, -11, -3, -29, -45, -17,
  -26, -58, -9, -20, -57, -2, 89, -85,
  38, 38, 23, -91, 49, 30, -91, -37,
  44, 12, 3, -71, -36, -8, -43, -41,
  -66, 25, -80, -19, -90, 97, 13, 4,
  106, -30, 40, 8, -56, -58, 2, 39,
  89, 25, -40, 30, -4, 5, 20, 38,
  -70, 24, -56, 22, 51, -3, -55, -13,
  34, -17, -112, -53, 17, -71, 69, -26,
  -115, 35, -25, 20, 2, -15, -26, -70,
  56, 14, 19, -43, -45, -14, 22, -9,
  -41, -106, 101, -22, 23, 33, -42, 87,
  10, 33, 13, -16, -12, -20, 36, -50,
  -35, -70, 48, -64, -1, 104, 5, 63,
  -62, -127, -45, -17, -80, 41, -47, -36,
  -17, 52, 15, -8, 61, 117, -77, 45,
  -48, -54, -65, 31, -23, -36, 93, 31,
  18, 41, 86, 29, 52, 5, 26, 38,
  -5, 43, 45, -41, -60, 21, -56, 30,
  -23, -17, -7, -1, 19, 52, 46, -127,
  -3, -6, 43, -67, -28, -17, -68, -25,
  -22, 37, 28, -51, -11, 41, -42, -5,
  25, 42, 23, 23, -26, -47, 3, 74,
  72, -32, 95, 28, 57, -81, -74, 23,
  79, -42, -105, -15, 34, -68, -12, -31,
  -98, -45, -5, -56, -42, 62, 124, 114,
  54, -26, -37, -127, 79, -11, 15, -52,
  -41, 65, -62, 35, -15, 32, -31, 1,
  -14, 41, -128, 62, -32, 47, 97, -54,
  -7, 100, 10, -43, -33, 31, -44, 74,
  -18, -21, 127, 36, 50, -58, -6, 100,
  29, -54, 71, 39, 112, 46, -105, 55,
  -88, 33, -17, -42, -11, -71, 48, -41,
  16, -128, -24, -41, 87, -12, 6, -23,
  -102, 43, -86, 12, -67, -80, 38, -41,
  -78, 102, 53, 16, 74, -55, 5, -42,
  -36, 16, 80, -14, -28, 56, -25, -2,
  -98, -1, 19, -17, 19, 26, -60, 36,
  -41, 26, -15, 18, -15, 10, 65, 8,
  -31, -21, 29, 89, -28, -85, -47, 43,
  17, 4, -67, 39, 113, 41, -51, 27,
  29, 49, -121, -84, 62, -20, -3, 88,
  15, 74, 25, -60, 28, 8, 50, 119,
  -19, 49, -9, 53, 72, 22, 13, 8,
  -24, -1, -50, 123, 19, -13, -25, 46,
  -114, 52, 59, 30, 39, 1, -87, -43,
  -31, -22, 32, -35, 67, -47, 14, 30,
  15, 26, 30, -128, -48, -38, 120, 12,
  8, -53, 27, -60, 30, -27, -70, -23,
  -69, 19, 23, 58, 11, -49, -53, 53,
  31, -32, 58, 53, -107, -7, 8, -41,
  127, -24, -127, 15, -30, 19, 55, 26,
  -24, -15, -18, -59, 42, -65, -80, 64,
  -9, 18, 66, -37, 30, 9, -31, 0,
  -26, -10, -1, 7, -60, 69, -16, 21,
  -47, 3, 12, -29, -24, -34, 11, -66,
  10, -34, -23, -17, -45, 56, 17, -125,
  127, -36, 126, 17, 31, -46, 65, -62,
  -24, -12, 3, -47, 27, -57, 10, 67,
  87, -22, -126, -16, 27, 21, 29, -35,
  -20, -31, 95, -8, 52, -105, 56, 60,
  -36, 27, 25, -22, 66, 23, -19, -15,
  23, 12, -69, 127, 32, -67, 33, 90,
  1, 20, 25, -90, -44, -8, -127, -4,
  -10, -60, -50, -111, 105, -19, 5, 62,
  -16, 61, -52, -5, -15, -26, 124, -25,
  -1, -7, -34, 20, -18, 21, -29, -2,
  -83, 12, -45, 56, 13, 60, -46, 27,
  45, 54, -13, 11, -64, -38, -4, -22,
  117, -21, -9, -27, 11, -50, 11, -22,
  -22, 0, -33, 3, 8, -20, -88, 49,
  44, -22, 85, 30, 67, 59, -32, -20,
  63, -45, -35, -21, -24, 104, -53, 20,
  -20, -17, 7, 12, 13, -17, -18, -23,
  75, 6, 11, -60, -13, 68, -32, -52,
  40, -5, 11, -7, -15, -4, 65, 20,
  -4, 16, -8, 38, -1, 9, 35, 10,
  36, 17, -24, 108, 33, -29, -17, -33,
  -39, -115, 107, -44, -97, -83, -62, -107,
  -1, 22, -20, -29, 56, 17, 8, 13,
  74, 94, -24, 51, 14, -29, 5, 54,
  27, -125, 31, -102, -18, 3, -11, 56,
  8, -50, -4, 1, 71, 45, -23, -18,
  -45, -34, 58, 61, 26, 29, -16, -39,
  -41, -2, -127, -1, -23, 42, -8, -42,
  -50, 41, -47, -25, -20, 69, 62, -90,
  47, 125, 7, 124, -33, -28, -43, 56,
  50, -1, 97, -85, 41, -23, -120, -13,
  -32, -13, 32, 59, -12, 50, 80, 68,
  -89, -15, -31, 106, -39, 53, -4, 39,
  -15, -77, -85, -62, 37, 88, -11, -9,
  -11, 45, -19, -15, -11, -7, -26, -2,
  10, 70, 23, -43, -9, 7, -53, 2,
  -63, -82, -101, 72, -18, -23, -15, 59,
  2, -27, -7, 19, -33, -9, 65, 34,
  59, 24, 21, 68, -30, -52, -126, 1,
  79, 89, 11, 21, -109, 77, -53, -127,
  -46, 15, -38, -5, -1, -50, 10, 52,
  127, 82, -14, -58, 11, 75, -42, 30,
  49, -65, 116, 29, -13, 7, 48, 15,
  62, 87, -57, -42, 99, 2, -8, 0,
  -47, 52, -80, -55, -32, 42, 3, -83,
  -30, -43, 21, -34, 9, -124, 13, -30,
  -72, 30, 50, -81, -52, -12, 49, -41,
  82, 31, 60, 83, 21, -10, -11, 13,
  -49, -34, 2, -119, 6, -5, -66, 40,
  -15, -8, -6, -46, -91, 36, 1, 26,
  -24, 21, -27, 2, 35, 36, -9, 13,
  -44, 35, 35, -30, 6, 12, 49, 40,
  -127, -28, -37, -21, 16, 9, -7, 23,
  -40, -17, 38, -52, 7, -122, -53, 6,
  22, -128, -37, -7, 57, 17, -55, -29,
  -44, 2, 39, -107, 32, -17, 13, 5,
  22, 60, 71, 127, -37, -55, 22, -74,
  113, 54, -7, -9, -91, -61, -49, 17,
  -6, -93, -3, 75, 35, -29, -5, -52,
  1, -6, -70, -100, -40, 23, -58, -12,
  117, 8, -94, -56, -83, -35, 50, 11,
  6, 60, -14, 16, 64, 74, 41, -30,
  -41, -17, -127, 29, -23, 5, 3, -4,
  -42, 13, 4, 19, 49, -108, 62, -66,
  44, 14, 3, -28, -52, -10, -6, -16,
  62, -3, 38, 30, 53, 10, -4, -9,
  -117, 13, 16, -57, 21, -37, -4, 21,
  20, 7, 1, -45, -44, 48, -22, -40,
  -36, 11, -118, 12, -3, 28, -29, -11,
  -5, -7, 29, 41, -24, -53, 9, -44,
  -51, 18, -34, -34, -26, 68, 28, 51,
  -52, 0, 6, 28, -21, 10, -8, 58,
  -66, -67, 3, -54, 35, -30, -63, 12,
  -17, -11, -12, 4, -6, -9, 98, 43,
  -21, 14, 125, 34, 22, -94, -9, -117,
  41, 76, 50, -124, 1, -125, 36, -45,
  84, -70, -38, -108, 33, -45, -28, 62,
  -85, 37, -18, -101, -86, 2, -98, -38,
  -18, -123, -128, 17, 80, -51, 84, 99,
  -84, 12, -3, 126, -14, 100, -66, -83,
  -18, -2, -70, 16, -33, -15, 60, -26,
  65, -109, -77, -69, -12, -128, -16, -40,
  56, 45, -18, -34, 48, -66, -80, 4,
  127, 37, 17, 1, 31, -27, 26, -7,
  -63, 29, -71, -61, -14, -18, -10, 46,
  -55, 20, 79, 8, 24, -23, 47, -26,
  -68, -25, -68, 6, -33, 14, -51, -21,
  38, -36, -11, 118, 6, -127, -57, -67,
  47, -31, -5, 21, -58, -71, 4, -54,
  4, -35, -8, 87, -94, -74, 105, 23,
  -71, -47, 105, -60, -20, -80, -49, 56,
  -11, 2, 0, 18, -108, 10, 102, -16,
  33, 56, 14, 52, 38, -15, -28, -22,
  4, -34, 25, -22, 5, 22, -27, -26,
  23, -17, 22, -25, 26, -13, -14, 80,
  54, 13, -18, -70, 1, -17, 6, 15,
  69, 33, 34, 30, 29, 2, -15, 24,
  -57, 69, -32, 16, 95, 48, -21, 2,
  27, 1, 31, 9, 36, -10, -8, -1,
  35, -13, -11, -10, -32, 12, -22, -26,
  -1, 25, -11, 1, 56, 22, 18, 30,
  -1, -14, 16, 70, 25, -14, -49, -41,
  -18, -73, -42, 3, 47, -43, 2, -61,
  2, 5, -2, 10, -94, 21, 25, 8,
  -15, -9, 5, 89, -18, 69, -22, -9,
  11, 30, -14, -20, 44, -29, 19, -43,
  0, -8, -24, 25, -25, -7, 19, -58,
  -49, 17, 2, 13, 11, -14, -54, 28,
  -13, -50, -44, 14, -20, 10, -35, -26,
  10, 11, 52, 13, 5, 21, -4, 32,
  -13, 4, 15, 8, 59, 55, 26, -26,
  8, 1, -11, -51, 3, 7, 49, -20,
  25, 24, -17, 43, 36, 16, 2, -33,
  -29, -49, -7, 7, 49, 17, 49, 14,
  -58, -18, -5, -33, -50, 53, -74, 6,
  -32, -2, 27, 2, -14, -29, 21, 6,
  22, -97, -10, -19, -7, 3, -16, 8,
  23, -27, -38, -68, -7, 84, 23, 4,
  -46, -28, -8, 6, -125, 44, -11, -10,
  -118, -34, 10, -6, 41, 19, 11, 36,
  28, 16, 6, 3, -3, 18, -13, -48,
  10, -8, -52, 7, -24, 15, 4, -128,
  28, -31, -13, 29, 37, -85, -22, 14,
  -12, 10, 28, -25, 8, -25, 37, -18,
  34, 61, 7, -1, 53, 46, -98, -57,
  -4, 1, -49, 17, -55, 10, 4, 16,
  22, -14, -3, 2, -33, 7, 0, -4,
  -28, 19, -2, -31, 39, -36, 28, -128
};

static const rnn_weight noise_gru_recurrent_weights[6912] = {
  -29, -32, 10, 43, -76, 47, -27, -8,
  30, -74, 9, -70, 3, -37, -32, 54,
  -1, -26, -47, 22, 19, -5, 4, -38,
  21, 70, -21, -124, -32, 10, 49, -40,
  -14, -28, -5, -10, -31, 21, 2, 0,
  -14, 22, 30, 5, -46, -5, -42, -26,
  -2, -21, 2, -51, 53, -35, -23, -49,
  -42, -49, 27, -15, 6, 0, -44, -15,
  2, -14, -12, -3, 25, 25, -29, 14,
  -35, 17, 68, -32, -25, 57, -34, 20,
  1, -13, 14, -74, -26, 31, 13, -14,
  -41, 38, 37, -4, -4, -38, -3, -33,
  8, 3, 37, 3, 2, -23, 15, 29,
  -21, -14, -27, -46, -8, 2, -7, 19,
  59, 15, -12, 28, 47, 12, 39, 3,
  -6, 7, 33, -68, -71, -26, -23, -6,
  18, -37, 6, 3, -40, 22, 4, 18,
  7, -25, -14, 11, -14, -39, 39, 10,
  -4, -84, 19, -5, 46, 90, 23, -14,
  34, -20, 19, -48, 61, 32, 44, -47,
  24, 0, -18, 11, -20, -62, 71, 35,
  -119, 5, -41, -2, -5, 47, 16, -16,
  -10, -26, 52, -25, 34, -5, 32, -8,
  118, 74, -50, 84, -79, 9, -43, -23,
  -8, 9, 29, -45, 122, -32, 33, -20,
  -6, 41, -19, -14, -11, -35, 8, -3,
  -37, -31, -50, -43, 7, -48, -29, 6,
  25, 55, 35, -125, -17, -11, 39, -10,
  33, 18, -3, -10, -41, 12, -9, -16,
  -24, -2, 24, 33, 18, -44, -22, -3,
  49, 52, -1, 16, 56, 44, 37, -19,
  24, -19, 31, 6, -16, -22, -5, -30,
  -51, -18, -3, 42, 24, -14, 41, -23,
  52, 34, 57, 84, 10, 28, 57, 5,
  25, 18, -17, -58, 17, 42, -41, -27,
  -57, 7, -30, 38, -3, 5, -6, 38,
  -8, -22, -65, -57, 37, 17, -10, -21,
  -51, 20, 18, -71, -1, 5, 38, -5,
  7, 45, -34, -40, 12, -8, 34, 23,
  -56, 8, 97, -50, 22, 38, -45, -67,
  14, -42, 13, -89, 68, 6, -22, -21,
  72, 39, -25, -36, -29, 3, 37, -14,
  31, 18, 71, -43, 61, 5, -18, 24,
  -28, -48, 17, 120, 9, 22, -7, -7,
  -32, -15, -28, 4, 5, 57, 1, -51,
  29, -55, -4, -23, -29, 19, 34, 113,
  -12, -20, 63, 15, -20, 4, 9, -14,
  -56, 38, -54, -22, -25, -4, 59, -16,
  -11, 2, -53, 47, 19, 33, 39, 18,
  59, -12, -23, 27, 2, -24, 14, -8,
  -24, 38, -33, -18, -20, 0, 12, 21,
  54, -23, -2, -24, 26, 5, 27, -16,
  45, -23, 4, 10, -30, 76, 85, -14,
  -5, -16, -26, 32, -8, -9, -38, 26,
  -7, -13, -105, 12, 29, 21, 2, 17,
  -45, 4, 7, 32, -82, -35, -30, 14,
  10, 36, -50, -43, 7, -26, 72, 36,
  82, 60, -6, -17, 46, -7, -10, 46,
  -9, 15, -37, -24, 40, -6, 49, -21,
  -72, 52, -18, -20, 37, 20, -19, 3,
  27, 17, -8, -18, -12, -22, -11, -48,
  27, -15, -17, 32, -32, -19, -85, 58,
  9, 51, 19, 13, 25, 0, -21, 10,
  -8, -28, 53, 56, -48, 12, -36, 38,
  -4, -24, -12, 4, -12, -17, -13, -39,
  9, 40, 33, -37, -82, -10, -1, -42,
  -29, 47, 31, -10, -30, 38, 12, -3,
  33, 0, -40, -50, -25, 9, -41, -28,
  60, 48, 37, -1, -12, -16, 25, 1,
  50, -16, -23, -45, 30, 47, -19, 28,
  23, -14, -62, 27, -6, -14, 21, 4,
  9, -23, -43, 35, -20, -3, 23, 43,
  23, 59, -28, 30, -4, 42, -45, -46,
  11, -55, 29, 34, 20, -4, 65, -27,
  18, 37, -37, 18, 8, 1, 77, 66,
  -27, 25, 59, -18, 10, 0, 29, 27,
  7, -15, 8, -7, 29, 47, 17, -5,
  34, 7, 90, 84, 16, 7, 19, 38,
  -4, -25, -26, 67, -33, 26, 24, -45,
  15, -12, -56, -9, -6, 20, -48, 5,
  -12, 34, -3, -20, -5, 1, -16, 38,
  -22, -37, -45, -2, -66, 15, 43, 17,
  -23, 23, -20, 60, 24, 2, -9, -4,
  3, -11, -21, -18, 9, 34, 12, -1,
  3, -15, 10, 33, 28, -16, -13, -2,
  -21, -13, 12, 6, 5, 77, -9, 65,
  29, -14, 42, 41, -20, -8, -55, -3,
  13, 42, 16, -8, 43, -9, 28, -54,
  6, 13, -1, -4, -6, 19, -3, -18,
  -25, -4, 46, 13, 24, -28, -31, -15,
  108, -56, 33, -19, -20, 35, 2, 90,
  -28, 0, -29, 27, -37, -16, -28, -5,
  36, 29, 27, 38, 58, 39, 12, 60,
  -72, 11, 1, 8, -50, -46, 18, -56,
  11, 1, 36, 16, 127, 30, 26, -7,
  19, -128, -41, 18, -125, -4, -4, 12,
  -32, -34, 73, -43, 8, 37, -27, -33,
  24, -55, 58, 5, 1, -25, -31, -68,
  40, -28, -30, -3, -40, 22, -23, 1,
  92, 2, 9, -49, -23, -10, 84, 11,
  -1, -62, -31, 19, -37, 4, -15, 20,
  -25, 44, -32, -46, -32, 21, -32, -6,
  -22, 23, 1, 38, -4, 27, 21, -42,
  -44, -29, -60, -35, 5, 28, 62, -24,
  8, 18, -27, -12, -5, 19, 0, 24,
  -15, 52, -35, -10, -3, 4, -43, 73,
  47, -4, -27, -30, -18, 4, 26, -5,
  7, 120, -11, 25, 4, 20, 8, 54,
  -38, -41, 61, -21, 79, -12, -29, 18,
  1, 44, 24, 71, 9, -17, -41, 10,
  90, -18, -15, -8, 74, 42, 76, -8,
  -36, -1, -38, -13, -22, 52, -12, -24,
  50, 17, -25, 22, -10, 34, 21, 48,
  -21, 18, 16, -15, 26, -56, -19, -72,
  54, 38, -15, -10, 50, -78, -39, -42,
  0, -62, -17, 38, 43, 33, 6, 43,
  -42, 30, 32, -23, -2, 29, 34, 34,
  -81, 15, -8, -2, 27, -31, -23, 36,
  26, 47, 2, 26, -2, -22, 61, -25,
  -9, 37, 39, 53, -5, -27, -1, -13,
  -23, -4, 28, 1, -7, 69, 33, 23,
  54, -32, 6, -42, -11, -38, 41, -27,
  26, 9, 53, -22, 20, 30, -5, 0,
  -67, 17, -52, -21, -36, 14, 1, 3,
  13, 78, -86, -1, 13, -2, -8, -78,
  3, -104, -38, 45, -7, -24, -8, 3,
  -64, 33, -22, 23, 59, -35, -33, -24,
  32, -2, -25, 6, 28, 0, 50, 19,
  -13, 17, -19, 3, -3, -17, -26, -10,
  -19, -45, 114, -43, 0, -35, 20, -52,
  10, 5, -2, -16, 48, 21, -25, 9,
  14, 12, -71, 58, -19, 56, -24, -37,
  -23, -16, 22, -32, -12, -15, 20, -18,
  -28, -19, 7, 17, 50, -48, 0, -50,
  -16, 1, 10, 26, -60, -26, -42, -5,
  -15, -33, -84, 44, -2, 39, -7, 27,
  -36, -27, 15, -39, 9, -5, 46, 5,
  -14, 7, 5, -33, -15, -7, 19, 26,
  -22, -28, 22, 32, 19, -19, 3, 40,
  -28, -46, 68, -14, -22, -46, 41, -13,
  22, 53, 3, 36, -45, -25, -10, -22,
  -15, -22, 19, -57, 74, -7, -20, 9,
  -47, -10, 14, -50, 37, -10, -3, 43,
  -5, -44, -22, -9, -8, 37, -23, 31,
  62, 25, 5, 5, -19, 14, -18, -26,
  -60, 14, 18, 14, -26, 39, -8, -36,
  54, 66, 8, -23, 39, -40, 44, 48,
  27, -6, 54, -2, 3, 40, -18, 15,
  22, 26, -36, -50, -11, 36, 34, -10,
  2, 69, 20, -18, -9, 55, 25, -10,
  -11, -21, 36, -9, 5, -1, -8, 17,
  -36, -57, -26, 44, 4, -30, 3, 29,
  42, 48, -15, -61, -5, 16, 14, 29,
  4, -16, 34, 5, 35, 14, 5, -24,
  9, -59, -50, 5, 17, 22, -10, -9,
  0, -80, -14, -33, -24, 33, -9, 13,
  8, -21, -9, 66, -14, 10, 44, 25,
  41, -30, -43, -11, -38, 25, 31, -22,
  15, 18, 2, -12, -35, 12, 66, -24,
  22, 15, -10, -2, -9, -11, -28, 0,
  35, 19, 2, 9, -8, 48, 52, 29,
  -6, 17, 27, -2, -4, 10, -3, 2,
  -83, -98, 6, -16, 35, 21, 16, 44,
  1, 26, 29, 106, 26, 37, 26, -28,
  -21, 70, -47, 22, 13, 15, 51, 66,
  -14, -2, 63, 45, 51, 11, -15, 9,
  -26, -17, -53, 29, 1, -4, 17, -9,
  32, 39, -52, 40, 2, -10, 43, 41,
  -41, -20, -7, -35, 28, 4, 53, 1,
  -69, -15, -44, 17, -5, 21, 31, 9,
  -40, 27, 25, 3, 3, 4, -30, -6,
  -10, -55, 17, -13, -33, 37, 6, 17,
  -28, -45, 49, -4, -43, 10, -51, -10,
  -69, 68, 1, -62, -42, -67, -28, -22,
  2, 64, -13, -2, 17, -54, -74, -34,
  51, 47, -5, 17, -62, 44, -101, -19,
  -66, -1, 73, 45, 28, 6, 19, 18,
  8, -17, 49, -12, 16, 31, -7, 37,
  11, 17, 23, 19, -32, -21, 29, -59,
  -15, -41, -11, -28, -14, -12, -9, -7,
  -10, -81, -72, -9, -54, -62, 22, 56,
  0, -7, -2, -10, 48, 21, 12, 13,
  10, 40, -16, 75, -6, 29, 20, 36,
  -45, 15, 27, 22, 35, 26, 15, -24,
  31, -8, -41, -26, 23, 44, 34, -47,
  60, 4, -21, 35, -54, -46, 119, -46,
  -19, -45, -2, -1, 33, 0, -5, -8,
  -59, 10, 40, -21, 12, 42, -23, 65,
  -30, 46, 12, 8, -39, -38, -66, 18,
  8, -43, -58, 70, 15, 10, 50, -112,
  21, -1, -38, 16, 67, 17, 27, 27,
  5, 11, 24, -7, -23, 14, 55, -34,
  2, -56, 32, 41, 36, 4, -66, 51,
  -90, 15, -14, -13, -54, 27, 82, 30,
  26, 1, -8, 38, 9, -12, 14, -9,
  -13, -8, -41, -3, 35, -10, 22, 10,
  -13, 14, 10, -17, 0, -15, -22, 12,
  16, 12, 34, -19, -35, -50, -27, -49,
  21, 8, 34, 1, -28, 7, -72, -76,
  16, -7, -61, 40, -5, -84, -27, -36,
  -12, -17, -4, 0, -71, 7, -28, 33,
  -49, 30, -40, 55, -68, 111, 42, -4,
  -39, 1, -24, -5, 34, 2, 71, -9,
  -7, -72, -43, 13, -36, 23, -9, -54,
  42, 2, 16, 10, 11, -5, 15, 46,
  11, -9, -11, -38, 0, -20, -35, 5,
  6, -1, -23, -10, 26, 30, 24, 20,
  11, -16, 46, -36, -66, -9, 42, 3,
  -38, 2, -5, 32, -39, -13, -1, 35,
  10, 57, -4, -12, -4, 2, -89, -11,
  94, 45, 12, -5, -76, 42, 66, 56,
  10, 7, -46, -87, -8, 54, -36, -27,
  15, 9, -31, -6, -66, 24, 11, 22,
  12, 2, 22, -5, 24, -28, -6, 30,
  -25, -23, -11, 74, -9, -12, 11, -26,
  48, 7, -34, 32, -3, 15, -2, 16,
  19, -1, 0, -22, 46, -21, -47, 24,
  11, -28, 3, 82, -52, 28, -3, 36,
  42, 36, 19, 10, -5, 5, 39, 75,
  -1, 46, -10, 20, -4, -3, 13, 20,
  46, 38, 27, 41, 12, 46, -10, 6,
  -5, -10, -3, -52, -40, 18, 1, 17,
  14, 24, 12, 7, -20, 53, 2, 14,
  19, -17, -33, -4, 27, 14, -12, 27,
  21, 3, -25, -13, -10, 34, 26, -27,
  -20, -10, -41, -12, -4, 17, -22, -7,
  17, -31, 52, -35, -16, 8, 87, 21,
  -35, 4, 5, 4, -18, -4, -4, -14,
  -1, 43, 20, 60, 16, -31, 10, 20,
  119, 48, -36, -33, 19, 53, -34, 43,
  53, -28, 37, 60, -31, 8, -10, 4,
  7, 49, -11, -50, 23, 74, -23, -6,
  -17, -21, 20, -15, -22, -9, 32, 53,
  -36, 31, 113, 37, 17, 32, -2, -15,
  23, 84, 55, -49, -13, -7, -40, 23,
  16, -49, -17, -11, 40, -19, 34, -21,
  -73, 76, 8, 2, 22, 96, 35, 36,
  -19, 55, -42, -57, -15, 71, -93, 41,
  31, 51, -2, -15, 17, 13, 25, 44,
  14, 36, 51, 30, 78, 72, 35, -38,
  -43, 21, 8, -61, -1, -13, 0, 25,
  -9, -46, -19, -1, 15, 20, 7, -10,
  4, 23, -29, 15, 5, -22, -30, 40,
  -26, -31, 24, -64, -23, 55, 10, -22,
  -36, -20, -32, -24, 5, 31, 31, 26,
  26, -17, -16, -37, 20, -60, -83, -11,
  13, -56, 7, -46, 23, -24, -36, 65,
  -25, -75, 53, -9, -11, -5, 24, 37,
  3, -15, -13, 2, 37, -12, -11, -21,
  71, 18, 10, -20, 48, 7, 36, -32,
  14, -12, -1, 22, 14, 75, 27, 34,
  49, -58, 47, 38, -81, -28, 3, -33,
  7, 99, 53, 26, -8, 20, -62, -20,
  60, -64, -30, 16, -7, 81, 4, 27,
  59, -61, -4, -22, 29, 38, 66, 12,
  1, 74, -26, -26, -5, -3, -30, 7,
  19, -27, 31, -18, -18, 9, -45, 15,
  -7, 57, -30, 0, 58, -8, -10, -23,
  -6, -95, -39, -4, -1, -34, 4, 3,
  -51, -33, -14, 22, -8, 7, -20, -6,
  -3, 2, -10, 33, -23, -15, 79, -9,
  -12, 17, -38, -34, -8, 13, 10, 62,
  -74, 20, -1, 18, 15, 0, 80, 41,
  1, -35, -1, -32, -8, -57, 18, -30,
  40, -95, -11, 2, -13, -6, -14, 6,
  -11, -27, -26, 24, -19, 69, 33, -36,
  26, -25, 58, 35, -16, 6, -29, -18,
  55, 45, 16, -13, 34, 2, -13, -25,
  41, 34, -38, -14, -41, 29, 44, 37,
  34, 3, 50, 12, -30, -1, -13, -31,
  -12, 12, -24, 23, -13, 47, -39, 60,
  -9, -37, -80, 53, -24, -52, 38, -3,
  -13, 13, -34, -9, 54, 7, 31, 36,
  23, 4, 41, 60, 9, 2, 43, 11,
  3, 43, -29, -1, 45, 38, -39, 6,
  -13, 68, 11, -19, 43, -8, 71, -10,
  -3, -21, 6, -60, -5, -23, 12, -60,
  24, -1, -41, 7, 17, -36, -82, 3,
  -23, -9, -53, -10, 20, 5, 22, -24,
  -29, -16, -14, 2, 4, -3, 30, -2,
  -21, -12, 1, 9, -47, -30, -6, -2,
  15, 12, -16, -13, 5, -59, 30, -27,
  45, 16, 41, 27, -5, 21, -20, 17,
  8, 23, -53, -36, -38, 51, -17, -11,
  39, 29, 47, 47, -9, 22, -5, -4,
  16, 44, 43, 8, 24, 15, -17, -10,
  -22, -27, -7, 29, 51, 32, 23, -4,
  3, 10, -43, -6, -37, -56, 11, -1,
  23, 22, 35, -57, -15, -25, -4, -8,
  -3, -90, 5, 26, -52, -41, -70, -13,
  7, -33, 30, -51, 92, -56, -1, -47,
  70, 82, 25, -23, -11, -28, -9, -16,
  50, 24, -17, 24, -26, 15, -8, 1,
  -35, -13, -26, -7, 41, -31, -6, 17,
  -35, -23, -78, -6, 22, 20, 14, -2,
  54, -54, -26, -15, -35, -9, -41, 26,
  -4, -13, 9, -34, 13, 31, 20, 17,
  15, -10, 11, -6, 8, -11, -35, -40,
  -41, -25, -9, -36, -49, 40, -14, -45,
  -22, -21, -16, 13, 49, -41, 60, -14,
  -12, -66, 7, 75, -82, 5, -57, -71,
  31, 67, -54, -57, -32, 24, 38, 39,
  28, 13, -10, 25, -33, -19, 25, 13,
  -35, -3, -40, -18, 9, 34, 1, 1,
  13, 6, -15, 13, -12, 22, 5, 38,
  57, 21, -16, 30, 6, 12, 19, 8,
  83, 35, 25, -14, -42, 41, -14, 18,
  39, -21, 21, 4, -10, 2, -11, 47,
  55, 27, -17, -10, 33, 11, 21, 5,
  27, 81, -12, 9, 31, -25, -31, 45,
  10, 63, -9, 55, 51, 71, 73, -20,
  33, -29, 12, 6, -38, 5, 21, 42,
  -39, -81, 44, -38, 31, 26, -33, -19,
  -8, 24, -56, 3, 35, 5, -12, -4,
  -27, -35, -11, -57, 11, -1, -2, -45,
  -9, -11, 9, 13, -79, -12, -13, -27,
  23, 7, -69, -102, -49, -34, 1, 19,
  -33, 90, -128, -32, -60, -20, 3, -22,
  -43, -51, 33, -9, 25, -12, 9, -6,
  -18, -37, 18, -58, -41, 27, 8, 56,
  0, 2, 10, -6, 4, 10, -15, -24,
  -57, 20, -21, 7, -6, 26, 23, 19,
  88, -52, 17, 25, 25, 6, 16, -24,
  4, 2, -20, -10, -15, -15, -4, 2,
  0, -50, 62, 46, 38, -11, -85, 18,
  5, -88, -11, 10, -33, -17, -22, 31,
  -44, 10, -35, 45, -16, -4, 25, 16,
  15, -17, 24, -62, 9, 20, -23, -22,
  51, 5, -23, 6, -35, 7, -32, 7,
  -23, 7, 22, -45, -2, -29, -50, -8,
  -45, -5, -51, -41, -43, 1, -89, 10,
  -23, -1, -8, 53, 2, -117, -22, -1,
  -22, -6, -3, -10, -64, 29, -44, 17,
  0, 22, 9, 63, -29, -24, 24, 15,
  -79, 62, 0, -2, 1, 11, -14, -20,
  -19, 57, -66, -28, 7, -59, 11, -9,
  25, 9, -41, 11, -18, -29, -18, 4,
  47, 32, 13, -51, -34, -5, -65, 35,
  25, 26, 24, 31, 43, 6, -10, 16,
  9, 35, 39, -14, -20, 86, 22, -51,
  39, -7, -46, -31, 40, 10, -31, 23,
  6, -48, -56, -69, -50, -16, 14, 41,
  -60, 8, -12, -7, -71, -21, -119, -42,
  -26, -29, 35, -19, 19, 57, -15, 0,
  48, -25, -12, -89, 15, 33, 36, 82,
  24, 8, -6, -44, -35, 14, -62, -48,
  12, -45, 31, 41, 13, -39, 7, 37,
  16, 4, -74, -14, -19, 31, 54, 61,
  29, 16, 40, -15, 55, -25, 9, -27,
  13, -8, -42, 12, 11, 7, -12, -10,
  22, 26, -4, 15, 19, 3, -80, 13,
  -68, 37, -8, -5, -14, -5, 2, 13,
  31, -3, 42, -13, 2, 45, -18, -8,
  56, -6, 1, 22, -29, -38, 14, -32,
  -14, 54, 58, -57, -55, 23, -31, -5,
  11, -6, -29, -18, -50, 40, 46, -50,
  80, -52, -14, 48, 32, 17, -54, -33,
  81, 9, 43, 62, -19, -47, -22, 44,
  37, 28, -60, 21, 39, -6, -43, 59,
  25, -26, 13, 54, 9, 68, -8, 3,
  2, -17, 8, 47, 49, 64, 56, -23,
  63, -33, -37, 11, -12, 52, 63, 63,
  70, 126, 40, -44, 27, 37, 70, 42,
  31, 38, 18, 13, 17, -20, -58, 4,
  -37, 2, 22, -27, -33, -16, -28, 21,
  53, 92, -28, -16, 45, 24, -7, 40,
  29, -46, -12, 17, -27, -8, -7, 1,
  -16, -22, 1, -22, -24, 5, 44, 14,
  -33, 8, 37, -5, -21, -37, 23, -10,
  -19, -34, 75, 39, 5, 59, -1, 45,
  18, 0, 8, 24, -42, 36, 42, 4,
  -21, -5, 0, -4, -8, -12, -35, 18,
  2, 33, 5, 10, 39, -63, -23, 3,
  10, -8, -7, 36, 9, 18, 63, 39,
  -8, 23, 34, 48, 31, 10, -3, -17,
  61, 1, 98, -76, 12, 55, 35, -6,
  9, 4, -31, -30, 5, 18, -19, -23,
  -25, -48, 51, 18, -28, 17, -52, -22,
  37, 84, 28, 42, 12, -15, 3, -3,
  -17, -42, -52, -36, -26, -39, 2, -31,
  28, -83, -10, 35, 41, 30, 30, -4,
  68, 57, 21, 19, 31, 6, 41, -4,
  -57, 11, 30, 25, -37, -31, 8, 10,
  3, 14, 3, 41, 36, 17, 15, 26,
  -44, -43, -10, 23, 14, -42, -24, 13,
  1, 30, -22, 5, -16, -30, -29, -26,
  -19, -46, -24, -16, -32, 5, 2, 28,
  -19, -59, -5, -34, -4, -16, -62, -10,
  -13, -18, 6, 6, -1, 25, 23, 19,
  1, 12, -9, -6, -28, -12, 26, 8,
  -21, 18, 34, 54, 6, -75, -11, 48,
  -11, 3, -19, -38, -52, 19, 53, 12,
  65, 7, 49, 62, 23, -15, -88, 7,
  -4, -11, -30, 32, -29, -47, -13, -62,
  63, 22, 21, 1, 20, 28, 66, 18,
  20, 33, 50, -51, -3, -24, -65, -14,
  -82, -68, -51, -55, -120, 85, 26, 54,
  -59, 92, 45, -27, -52, 5, -59, -29,
  -37, 68, -17, -16, 100, -19, -21, 68,
  -12, -31, 69, 48, -90, 58, 45, 31,
  57, -9, 10, -32, 118, 1, -55, 31,
  -1, 2, -99, 38, -126, 2, 66, -72,
  -7, -3, 53, 14, 60, 24, 30, -28,
  41, 23, -21, 1, 66, -33, -4, 7,
  37, 33, -79, -43, 7, -2, 23, -26,
  26, -30, -19, 9, -14, 18, 31, -21,
  -12, -29, -1, -11, 31, 22, -33, 53,
  7, -31, 13, -16, 33, 40, 8, 31,
  -17, 63, 19, 38, 11, 27, -1, -25,
  39, -41, 37, -60, -31, 3, -26, 1,
  -36, -4, -70, -45, 12, 19, 3, 20,
  53, 35, -14, -21, -16, -24, -37, -21,
  16, 8, 31, -45, 5, 44, 28, 6,
  89, -26, 17, 2, -62, 42, -7, 64,
  7, -5, 33, 19, 13, -67, 39, 0,
  15, -54, 4, -67, 19, 6, -11, 50,
  -21, -74, 16, 18, 1, 31, 87, 4,
  -15, -14, -39, 34, -35, -45, -30, -47,
  2, 12, -72, 5, -20, 13, 84, 19,
  62, -67, -12, 4, -15, 20, -21, -57,
  -13, 16, -4, -42, 24, -7, 11, 33,
  -46, 64, -7, 16, -55, -78, -8, 40,
  -53, -69, 17, -60, -7, 16, -65, 47,
  13, -9, -4, -27, -29, -43, -27, 28,
  -71, -5, -53, -33, -20, -28, -32, -51,
  -23, 38, -26, 43, -8, -7, 41, -51,
  47, 62, -17, -11, -8, 25, 18, 3,
  49, 70, 1, -91, 14, -16, 11, -47,
  -58, -13, 23, -32, -21, 22, 62, -13,
  62, -20, 82, 31, 24, 36, -1, -12,
  -81, 48, -14, 59, 2, -8, 57, -30,
  -17, -33, -74, -11, 21, 16, -50, 42,
  -12, -40, 69, -7, -2, -37, -38, -14,
  3, 25, 3, -11, 1, 8, 50, 21,
  13, 47, -17, -4, 65, 6, 31, 43,
  -8, 22, 24, -49, 23, 3, 10, 42,
  -50, -10, 30, 0, 8, 14, 19, -6,
  -7, -2, -67, -10, 14, -37, -21, -70,
  -28, 25, 3, -30, 2, -46, 10, -15,
  4, -6, 30, 47, 21, 11, 30, 24,
  15, 0, 0, -20, 23, 9, -37, -4,
  8, -32, -36, 16, -15, -14, 23, 31,
  -33, 15, 15, 88, 2, -6, -42, 10,
  64, -35, -31, -14, -87, 6, -27, -14,
  -27, -4, 30, 12, 15, -11, 36, 75,
  -12, -95, 29, -19, 25, 0, -8, 44,
  3, -33, -24, 34, -46, 36, 5, 40,
  15, 20, 15, -25, -34, -16, 14, 47,
  60, 57, -60, 25, 9, 13, -11, 61,
  -15, -14, 17, 11, -39, 1, -19, 17,
  2, 43, -20, -18, -23, -13, -12, -27,
  2, -98, 10, 59, -38, -20, 19, -8,
  -38, -46, 3, 29, -77, -2, 17, -49,
  13, -22, 38, 28, 7, 0, 31, 16,
  -25, 2, 12, -1, -38, 7, -5, 19,
  -8, -23, -5, 31, 12, 6, -47, 6,
  -55, -35, 7, 25, 69, -3, 1, -37,
  -4, -11, 25, 0, 10, -19, -68, -28,
  10, -50, -15, 5, 28, 31, -11, 37,
  -26, 15, -6, 73, -23, 41, 4, -15,
  10, 13, -42, 24, -32, -49, -28, 2,
  -24, 23, -51, -75, -35, 22, 42, -25,
  48, -2, -28, 33, -76, -34, 9, 54,
  -86, 1, -34, -35, -25, -23, 58, -18,
  30, -9, 3, -2, -36, 50, 1, 37,
  -46, -30, -39, -27, -40, 4, -43, -54,
  28, 36, -35, 19, 6, -30, -10, 21,
  29, 38, -10, -24, -41, 48, 6, -19,
  34, -3, 47, -54, 15, -31, 36, 72,
  -35, 117, -60, 41, 21, -34, -50, -39,
  -24, 32, -8, -67, -31, 37, -11, 20,
  -36, -7, 16, 0, -86, 26, -10, -38,
  -55, 63, 5, -34, -2, 17, -22, 27,
  7, -67, -7, -22, -113, 7, -3, -42,
  31, 81, 56, -22, 20, 1, -9, -30,
  6, 16, -8, -26, 0, -79, -27, -21,
  -22, -18, -2, -11, -24, 4, -23, 32,
  14, 10, 46, -5, -22, 48, 4, 23,
  -14, 11, -31, -41, 9, -57, -19, 32,
  -31, 49, 15, -32, -29, -34, -54, -7,
  26, 50, 24, 0, -29, -5, 22, -1,
  15, 35, 3, -35, -5, 28, -25, -29,
  0, 64, -16, 6, 29, -23, 31, 60,
  -33, 18, 15, -26, 0, -18, -26, 9,
  5, 13, -27, 4, 3, -21, 15, -42,
